{"learner":{"attributes":{"scikit_learn":"{\"_estimator_type\": \"regressor\"}"},"feature_names":["miss_distance","relative_speed","t_j2k_sma","t_j2k_ecc","t_j2k_inc","c_j2k_sma","c_j2k_ecc","c_j2k_inc","t_h_apo","t_h_per","c_h_apo","c_h_per"],"feature_types":["float","float","float","float","float","float","float","float","float","float","float","float"],"gradient_booster":{"model":{"cats":{"enc":[],"feature_segments":[],"sorted_idx":[]},"gbtree_model_param":{"num_parallel_tree":"1","num_trees":"200"},"iteration_indptr":[0,1,2,3,4,5,6,7,8,9,10,11,12,13,14,15,16,17,18,19,20,21,22,23,24,25,26,27,28,29,30,31,32,33,34,35,36,37,38,39,40,41,42,43,44,45,46,47,48,49,50,51,52,53,54,55,56,57,58,59,60,61,62,63,64,65,66,67,68,69,70,71,72,73,74,75,76,77,78,79,80,81,82,83,84,85,86,87,88,89,90,91,92,93,94,95,96,97,98,99,100,101,102,103,104,105,106,107,108,109,110,111,112,113,114,115,116,117,118,119,120,121,122,123,124,125,126,127,128,129,130,131,132,133,134,135,136,137,138,139,140,141,142,143,144,145,146,147,148,149,150,151,152,153,154,155,156,157,158,159,160,161,162,163,164,165,166,167,168,169,170,171,172,173,174,175,176,177,178,179,180,181,182,183,184,185,186,187,188,189,190,191,192,193,194,195,196,197,198,199,200],"tree_info":[0,0,0,0,0,0,0,0,0,0,0,0,0,0,0,0,0,0,0,0,0,0,0,0,0,0,0,0,0,0,0,0,0,0,0,0,0,0,0,0,0,0,0,0,0,0,0,0,0,0,0,0,0,0,0,0,0,0,0,0,0,0,0,0,0,0,0,0,0,0,0,0,0,0,0,0,0,0,0,0,0,0,0,0,0,0,0,0,0,0,0,0,0,0,0,0,0,0,0,0,0,0,0,0,0,0,0,0,0,0,0,0,0,0,0,0,0,0,0,0,0,0,0,0,0,0,0,0,0,0,0,0,0,0,0,0,0,0,0,0,0,0,0,0,0,0,0,0,0,0,0,0,0,0,0,0,0,0,0,0,0,0,0,0,0,0,0,0,0,0,0,0,0,0,0,0,0,0,0,0,0,0,0,0,0,0,0,0,0,0,0,0,0,0,0,0,0,0,0,0],"trees":[{"base_weights":[8.460499E-7,3.1729062E0,-9.094436E-1,4.953899E0,2.1349065E0,-2.9143417E-1,-2.235542E0,8.640926E0,4.5650563E0,-1.1497967E0,2.4660716E0,6.1023194E-1,-1.223936E0,-4.0652456E0,-1.5116657E0,7.1842976E0,1.1706405E1,3.9448218E0,6.231807E0,2.9317474E0,-1.9553872E0,3.9963791E0,1.940034E0,4.491518E-1,3.8254998E0,-2.0840645E0,-5.492558E-1,-2.367145E0,-5.5064964E0,-1.8191556E0,2.47209E0,8.079694E0,3.395411E0,1.2202825E1,3.9154181E0,4.2870126E0,4.0084606E-1,6.484385E0,6.2929696E-1,7.1351357E0,1.6207829E-1,-2.292978E0,5.767959E0,5.6434484E0,3.13937E0,1.1717728E0,3.5338802E0,-1.8285424E0,6.29207E-1,-2.116562E-1,4.78049E0,-2.9868767E0,-1.0161142E0,-7.586404E-1,2.7235236E0,-7.1223634E-1,-3.3166294E0,-9.120496E0,-5.042942E0,-9.9405134E-1,-3.2618995E0,2.1702795E0,8.613382E0,1.0893229E0,6.801086E-1,1.0132512E0,-8.6633176E-2,1.2628593E0,3.6964718E-1,2.7008277E-1,8.4022206E-1,3.7614754E-1,5.984554E-1,7.1995735E-1,-9.335214E-2,5.468738E-1,8.3233064E-1,1.0767735E0,-5.212397E-1,8.416292E-1,-9.176802E-2,-8.559713E-2,8.1907815E-1,-3.654361E-1,-1.1325549E-1,1.0301615E0,2.7938497E-1,4.270713E-1,6.370881E-1,3.7940207E-1,5.932456E-3,2.4034475E-1,7.6253237E-3,2.7603915E-1,5.2640754E-1,1.2738095E-1,-3.0748326E-1,1.8712191E-1,2.1032875E-2,3.125744E-1,-2.777724E-1,7.096687E-1,3.4822896E-1,-2.320702E-1,-4.2025685E-1,1.5694316E-1,-2.1794216E-1,6.890911E-2,-1.2022002E-1,3.131353E-1,-4.689984E-1,-1.1190527E-1,9.7989744E-1,-6.414316E-1,-2.646874E-1,-6.461801E-1,-9.87136E-1,-6.028058E-1,-3.7459072E-1,1.0997307E-1,-1.3164425E-1,-6.496695E-1,-2.571355E-1,1.1255659E0,2.0105147E-1,1.0849417E0,-9.486594E-1],"categories":[],"categories_nodes":[],"categories_segments":[],"categories_sizes":[],"default_left":[0,0,0,0,0,0,0,0,0,0,0,0,0,0,0,0,0,0,0,0,0,0,0,0,0,0,0,0,0,0,0,0,0,0,0,0,0,0,0,0,0,0,0,0,0,0,0,0,0,0,0,0,0,0,0,0,0,0,0,0,0,0,0,0,0,0,0,0,0,0,0,0,0,0,0,0,0,0,0,0,0,0,0,0,0,0,0,0,0,0,0,0,0,0,0,0,0,0,0,0,0,0,0,0,0,0,0,0,0,0,0,0,0,0,0,0,0,0,0,0,0,0,0,0,0,0,0],"id":0,"left_children":[1,3,5,7,9,11,13,15,17,19,21,23,25,27,29,31,33,35,37,39,41,43,45,47,49,51,53,55,57,59,61,63,65,67,69,71,73,75,77,79,81,83,85,87,89,91,93,95,97,99,101,103,105,107,109,111,113,115,117,119,121,123,125,-1,-1,-1,-1,-1,-1,-1,-1,-1,-1,-1,-1,-1,-1,-1,-1,-1,-1,-1,-1,-1,-1,-1,-1,-1,-1,-1,-1,-1,-1,-1,-1,-1,-1,-1,-1,-1,-1,-1,-1,-1,-1,-1,-1,-1,-1,-1,-1,-1,-1,-1,-1,-1,-1,-1,-1,-1,-1,-1,-1,-1,-1,-1,-1],"loss_changes":[3.7544006E5,5.3573094E4,8.287466E4,1.5260719E4,1.992443E4,5.7998656E4,4.2570562E4,4.4570703E3,9.957547E3,5.523087E3,1.3385023E4,1.8161586E4,1.9677227E4,2.2287562E4,2.8221547E4,2.3202148E3,1.2130586E3,8.535805E3,3.6991562E3,3.223676E3,3.6687036E3,5.9884453E3,1.5158719E4,1.3698024E4,6.45117E3,1.4368719E4,1.3025617E4,6.5735703E3,8.209828E3,2.5453773E4,3.0414463E3,1.9368633E3,3.8561582E3,1.0615703E3,9.174921E1,5.704914E3,5.640433E3,4.6311953E3,6.80785E3,1.142585E3,1.380179E3,2.1190864E3,7.667506E2,1.4257148E3,5.647582E3,1.1276111E4,5.37475E3,9.465071E3,1.6102441E4,2.7577246E3,4.0436055E3,6.531508E3,2.0546588E4,1.1471651E4,3.4704834E3,6.540618E3,5.499631E3,1.0521562E3,5.5611016E3,9.185726E3,1.7362023E4,2.2635195E3,3.2192812E3,0E0,0E0,0E0,0E0,0E0,0E0,0E0,0E0,0E0,0E0,0E0,0E0,0E0,0E0,0E0,0E0,0E0,0E0,0E0,0E0,0E0,0E0,0E0,0E0,0E0,0E0,0E0,0E0,0E0,0E0,0E0,0E0,0E0,0E0,0E0,0E0,0E0,0E0,0E0,0E0,0E0,0E0,0E0,0E0,0E0,0E0,0E0,0E0,0E0,0E0,0E0,0E0,0E0,0E0,0E0,0E0,0E0,0E0,0E0,0E0,0E0,0E0,0E0,0E0],"parents":[2147483647,0,0,1,1,2,2,3,3,4,4,5,5,6,6,7,7,8,8,9,9,10,10,11,11,12,12,13,13,14,14,15,15,16,16,17,17,18,18,19,19,20,20,21,21,22,22,23,23,24,24,25,25,26,26,27,27,28,28,29,29,30,30,31,31,32,32,33,33,34,34,35,35,36,36,37,37,38,38,39,39,40,40,41,41,42,42,43,43,44,44,45,45,46,46,47,47,48,48,49,49,50,50,51,51,52,52,53,53,54,54,55,55,56,56,57,57,58,58,59,59,60,60,61,61,62,62],"right_children":[2,4,6,8,10,12,14,16,18,20,22,24,26,28,30,32,34,36,38,40,42,44,46,48,50,52,54,56,58,60,62,64,66,68,70,72,74,76,78,80,82,84,86,88,90,92,94,96,98,100,102,104,106,108,110,112,114,116,118,120,122,124,126,-1,-1,-1,-1,-1,-1,-1,-1,-1,-1,-1,-1,-1,-1,-1,-1,-1,-1,-1,-1,-1,-1,-1,-1,-1,-1,-1,-1,-1,-1,-1,-1,-1,-1,-1,-1,-1,-1,-1,-1,-1,-1,-1,-1,-1,-1,-1,-1,-1,-1,-1,-1,-1,-1,-1,-1,-1,-1,-1,-1,-1,-1,-1,-1],"split_conditions":[4.071E3,1.186E3,1.3876E4,2.25E2,6.1369604E2,1.9038E4,2.2977993E-3,9.809567E1,7.167079E3,8.743916E1,6.6387476E2,7.304436E3,3.7335644E-3,8.6447014E1,7.24674E3,1.4947E4,8.121103E2,7.329681E2,1.5045E4,7.4092964E1,9.871801E1,2.002E3,7.17164E3,5.168863E2,7.1731745E-4,9.7674675E1,7.353035E3,9.208188E1,3.726801E-4,9.794033E1,8.1531104E2,1.1693329E-3,6.016231E2,9.977632E1,8.153901E2,9.8580215E1,7.364E3,9.2402106E2,7.34E2,4.9144257E2,3.689E3,5.1107217E2,4.8645215E2,1.1654E4,1.493E4,1.3018E4,2.5043108E-3,8.743916E1,7.021162E2,4.1299433E-2,8.065E3,4.2691E4,9.795113E1,6.8800116E2,5.1705E4,8.6393135E1,8.382536E-4,1.0547E4,6.887487E3,4.7136215E2,6.9664154E2,2.0334665E1,8.2277716E2,1.0893229E0,6.801086E-1,1.0132512E0,-8.6633176E-2,1.2628593E0,3.6964718E-1,2.7008277E-1,8.4022206E-1,3.7614754E-1,5.984554E-1,7.1995735E-1,-9.335214E-2,5.468738E-1,8.3233064E-1,1.0767735E0,-5.212397E-1,8.416292E-1,-9.176802E-2,-8.559713E-2,8.1907815E-1,-3.654361E-1,-1.1325549E-1,1.0301615E0,2.7938497E-1,4.270713E-1,6.370881E-1,3.7940207E-1,5.932456E-3,2.4034475E-1,7.6253237E-3,2.7603915E-1,5.2640754E-1,1.2738095E-1,-3.0748326E-1,1.8712191E-1,2.1032875E-2,3.125744E-1,-2.777724E-1,7.096687E-1,3.4822896E-1,-2.320702E-1,-4.2025685E-1,1.5694316E-1,-2.1794216E-1,6.890911E-2,-1.2022002E-1,3.131353E-1,-4.689984E-1,-1.1190527E-1,9.7989744E-1,-6.414316E-1,-2.646874E-1,-6.461801E-1,-9.87136E-1,-6.028058E-1,-3.7459072E-1,1.0997307E-1,-1.3164425E-1,-6.496695E-1,-2.571355E-1,1.1255659E0,2.0105147E-1,1.0849417E0,-9.486594E-1],"split_indices":[0,0,1,0,10,0,6,7,5,4,9,5,6,7,5,1,9,11,1,7,7,0,5,10,3,4,5,4,6,4,8,3,9,7,9,7,1,10,0,10,0,10,9,1,1,1,3,4,10,6,0,0,4,10,0,7,6,0,5,9,8,7,11,0,0,0,0,0,0,0,0,0,0,0,0,0,0,0,0,0,0,0,0,0,0,0,0,0,0,0,0,0,0,0,0,0,0,0,0,0,0,0,0,0,0,0,0,0,0,0,0,0,0,0,0,0,0,0,0,0,0,0,0,0,0,0,0],"split_type":[0,0,0,0,0,0,0,0,0,0,0,0,0,0,0,0,0,0,0,0,0,0,0,0,0,0,0,0,0,0,0,0,0,0,0,0,0,0,0,0,0,0,0,0,0,0,0,0,0,0,0,0,0,0,0,0,0,0,0,0,0,0,0,0,0,0,0,0,0,0,0,0,0,0,0,0,0,0,0,0,0,0,0,0,0,0,0,0,0,0,0,0,0,0,0,0,0,0,0,0,0,0,0,0,0,0,0,0,0,0,0,0,0,0,0,0,0,0,0,0,0,0,0,0,0,0,0],"sum_hessian":[1.30107E5,2.8984E4,1.01123E5,1.0671E4,1.8313E4,6.8978E4,3.2145E4,1.016E3,9.655E3,1.677E3,1.6636E4,3.5069E4,3.3909E4,9.111E3,2.3034E4,6.91E2,3.25E2,7.039E3,2.616E3,2.76E2,1.401E3,4.254E3,1.2382E4,3.3397E4,1.672E3,1.4905E4,1.9004E4,4.184E3,4.927E3,2.1384E4,1.65E3,5.58E2,1.33E2,3.05E2,2E1,6.419E3,6.2E2,2.503E3,1.13E2,1.09E2,1.67E2,1.343E3,5.8E1,1.454E3,2.8E3,8.356E3,4.026E3,2.446E3,3.0951E4,3.2E2,1.352E3,8.076E3,6.829E3,1.7862E4,1.142E3,1.526E3,2.658E3,5.58E2,4.369E3,1.3605E4,7.779E3,1.574E3,7.6E1,1.72E2,3.86E2,5.1E1,8.2E1,2.9E2,1.5E1,1.7E1,3E0,4.904E3,1.515E3,1.01E2,5.19E2,1.615E3,8.88E2,4.1E1,7.2E1,9.4E1,1.5E1,1.49E2,1.8E1,6.17E2,7.26E2,2.2E1,3.6E1,5.06E2,9.48E2,2.309E3,4.91E2,3.933E3,4.423E3,2.784E3,1.242E3,7.01E2,1.745E3,7.805E3,2.3146E4,1.39E2,1.81E2,4.84E2,8.68E2,5.219E3,2.857E3,2.119E3,4.71E3,4.189E3,1.3673E4,1.083E3,5.9E1,1.47E3,5.6E1,4.71E2,2.187E3,1.25E2,4.33E2,2.481E3,1.888E3,1.815E3,1.179E4,1.367E3,6.412E3,2.6E1,1.548E3,6.8E1,8E0],"tree_param":{"num_deleted":"0","num_feature":"12","num_nodes":"127","size_leaf_vector":"1"}},{"base_weights":[9.202013E-5,2.7131624E0,-8.6727047E-1,4.2858815E0,1.7200301E0,-2.2998522E-1,-1.9061596E0,7.1285706E0,3.8812068E0,-1.6207952E0,2.0238159E0,6.2425804E-1,-1.0450479E0,-2.1506567E0,2.0408754E0,6.0362067E0,9.466217E0,3.2816336E0,5.291291E0,2.6001096E0,-2.5377135E0,1.5423539E0,3.3233502E0,-4.1631973E-1,9.5047617E-1,-2.7527685E0,-7.169007E-1,-1.8518872E0,-4.8021154E0,6.4360654E-1,3.3259451E0,9.986515E0,5.32619E0,1.1862288E1,8.368969E0,2.9370506E0,6.15451E0,9.382549E0,4.994918E0,6.243751E0,3.1334373E-1,-2.9811158E0,2.2405279E0,2.8038197E0,9.036508E-1,3.7555664E0,1.8181701E-1,9.9945146E-1,-1.1515985E0,7.9596883E-1,3.9206285E0,2.8182802E-1,-3.624851E0,-8.6490196E-1,2.2947667E0,-9.9197143E-1,-3.1055405E0,-3.0942838E0,-6.027311E0,2.6687372E0,-2.928712E0,-2.9632087E0,3.8424032E0,-5.6341547E-1,1.0122764E0,-3.1291295E-4,5.82871E-1,1.2047757E0,2.1271078E-1,7.0764303E-1,1.1454074E0,2.7137795E-1,8.543111E-1,6.4658654E-1,-3.0220032E-1,4.523146E-2,1.01019E0,8.2142526E-1,4.6303916E-1,-9.104843E-1,7.2075266E-1,2.6071665E-1,-2.7292958E-1,-2.7206632E-1,-8.3090174E-1,4.383167E-2,6.9935286E-1,5.4685754E-1,2.114632E-1,1.1659937E-1,-3.773902E-1,2.8785166E-1,4.6791744E-1,-1.3693403E-1,4.5978162E-1,-1.3377748E-1,2.0127158E-1,-3.1103736E-2,-2.1927181E-1,7.4456386E-2,8.2398E-1,7.4862975E-1,2.569959E-1,-2.459605E-1,3.4473035E-1,-4.110488E-1,5.8256365E-2,4.0127467E-2,-1.3076685E-1,5.9271127E-1,6.928264E-2,4.5587093E-1,-1.1050741E-1,-5.6017786E-1,-2.2376962E-1,-3.7677723E-1,1.09103955E-1,3.3196008E-1,-6.441893E-1,-2.85508E-1,4.7502849E-1,-4.6999222E-1,3.1810054E-1,3.5358006E-1,-7.405538E-1,-2.1298157E-1,4.3489447E-1],"categories":[],"categories_nodes":[],"categories_segments":[],"categories_sizes":[],"default_left":[0,0,0,0,0,0,0,0,0,0,0,0,0,0,0,0,0,0,0,0,0,0,0,0,0,0,0,0,0,0,0,0,0,0,0,0,0,0,0,0,0,0,0,0,0,0,0,0,0,0,0,0,0,0,0,0,0,0,0,0,0,0,0,0,0,0,0,0,0,0,0,0,0,0,0,0,0,0,0,0,0,0,0,0,0,0,0,0,0,0,0,0,0,0,0,0,0,0,0,0,0,0,0,0,0,0,0,0,0,0,0,0,0,0,0,0,0,0,0,0,0,0,0,0,0,0,0],"id":1,"left_children":[1,3,5,7,9,11,13,15,17,19,21,23,25,27,29,31,33,35,37,39,41,43,45,47,49,51,53,55,57,59,61,63,65,67,69,71,73,75,77,79,81,83,85,87,89,91,93,95,97,99,101,103,105,107,109,111,113,115,117,119,121,123,125,-1,-1,-1,-1,-1,-1,-1,-1,-1,-1,-1,-1,-1,-1,-1,-1,-1,-1,-1,-1,-1,-1,-1,-1,-1,-1,-1,-1,-1,-1,-1,-1,-1,-1,-1,-1,-1,-1,-1,-1,-1,-1,-1,-1,-1,-1,-1,-1,-1,-1,-1,-1,-1,-1,-1,-1,-1,-1,-1,-1,-1,-1,-1,-1],"loss_changes":[3.0617453E5,4.9222734E4,6.527292E4,1.4005625E4,1.9612066E4,4.2547125E4,3.6177906E4,3.8217188E3,9.012875E3,6.241531E3,1.1076234E4,1.0128725E4,1.7521785E4,2.7953297E4,3.9248105E3,2.8581758E3,1.1679453E3,7.403539E3,3.8150703E3,2.3977036E3,2.8118154E3,1.0411164E4,6.499203E3,7.415056E3,1.0421484E4,1.3338969E4,1.1694385E4,3.4197617E4,7.4596875E3,7.5967134E3,3.710954E3,3.9117578E2,2.3620938E3,2.4340234E2,1.2508086E3,8.358E3,2.3109746E3,1.3701602E3,3.4496953E3,1.707602E3,1.2494268E3,1.6592451E3,9.6488245E2,7.9662656E3,1.0535564E4,3.3952266E3,3.9792432E3,5.769329E3,4.101903E3,8.25681E3,5.389176E3,9.779839E3,8.0018164E3,1.4018283E4,7.147199E3,1.1819537E4,2.79485E4,4.218168E3,8.0815156E3,7.7172812E3,4.1271562E3,2.537939E3,3.1947744E3,0E0,0E0,0E0,0E0,0E0,0E0,0E0,0E0,0E0,0E0,0E0,0E0,0E0,0E0,0E0,0E0,0E0,0E0,0E0,0E0,0E0,0E0,0E0,0E0,0E0,0E0,0E0,0E0,0E0,0E0,0E0,0E0,0E0,0E0,0E0,0E0,0E0,0E0,0E0,0E0,0E0,0E0,0E0,0E0,0E0,0E0,0E0,0E0,0E0,0E0,0E0,0E0,0E0,0E0,0E0,0E0,0E0,0E0,0E0,0E0,0E0,0E0,0E0,0E0],"parents":[2147483647,0,0,1,1,2,2,3,3,4,4,5,5,6,6,7,7,8,8,9,9,10,10,11,11,12,12,13,13,14,14,15,15,16,16,17,17,18,18,19,19,20,20,21,21,22,22,23,23,24,24,25,25,26,26,27,27,28,28,29,29,30,30,31,31,32,32,33,33,34,34,35,35,36,36,37,37,38,38,39,39,40,40,41,41,42,42,43,43,44,44,45,45,46,46,47,47,48,48,49,49,50,50,51,51,52,52,53,53,54,54,55,55,56,56,57,57,58,58,59,59,60,60,61,61,62,62],"right_children":[2,4,6,8,10,12,14,16,18,20,22,24,26,28,30,32,34,36,38,40,42,44,46,48,50,52,54,56,58,60,62,64,66,68,70,72,74,76,78,80,82,84,86,88,90,92,94,96,98,100,102,104,106,108,110,112,114,116,118,120,122,124,126,-1,-1,-1,-1,-1,-1,-1,-1,-1,-1,-1,-1,-1,-1,-1,-1,-1,-1,-1,-1,-1,-1,-1,-1,-1,-1,-1,-1,-1,-1,-1,-1,-1,-1,-1,-1,-1,-1,-1,-1,-1,-1,-1,-1,-1,-1,-1,-1,-1,-1,-1,-1,-1,-1,-1,-1,-1,-1,-1,-1,-1,-1,-1,-1],"split_conditions":[4.506E3,1.39E3,1.3201E4,2.82E2,5.451481E2,1.8829E4,7.232828E3,9.809567E1,9.8580215E1,8.743916E1,7.17164E3,7.105869E-4,5.1358E2,1.5068E4,8.304263E-2,6.6796936E1,1.6E2,4.0902174E-3,1.818E3,1.2664E4,3.9681518E-3,6.2385077E2,7.1946333E3,8.065E3,7.304436E3,8.739497E1,7.304436E3,9.794033E1,4.892541E2,1.2748E4,8.731416E1,8.724174E1,7.12521E1,7.1958955E3,8.724375E2,7.3993623E3,1.52E4,9.198398E1,6.3305347E2,4.6326945E-4,1.5561664E-3,1.5208E4,6.870795E3,1.935E3,1.4956E4,2.861E3,9.912594E1,2.881846E-3,8.781E3,1.0228427E2,7.942E3,1.6384189E-3,3.7335644E-3,6.857537E2,7.992E3,8.7271706E1,7.0045404E2,6.8744526E3,5.0554492E2,7.367149E1,9.842865E1,1.6656728E-3,5.691084E-4,-5.6341547E-1,1.0122764E0,-3.1291295E-4,5.82871E-1,1.2047757E0,2.1271078E-1,7.0764303E-1,1.1454074E0,2.7137795E-1,8.543111E-1,6.4658654E-1,-3.0220032E-1,4.523146E-2,1.01019E0,8.2142526E-1,4.6303916E-1,-9.104843E-1,7.2075266E-1,2.6071665E-1,-2.7292958E-1,-2.7206632E-1,-8.3090174E-1,4.383167E-2,6.9935286E-1,5.4685754E-1,2.114632E-1,1.1659937E-1,-3.773902E-1,2.8785166E-1,4.6791744E-1,-1.3693403E-1,4.5978162E-1,-1.3377748E-1,2.0127158E-1,-3.1103736E-2,-2.1927181E-1,7.4456386E-2,8.2398E-1,7.4862975E-1,2.569959E-1,-2.459605E-1,3.4473035E-1,-4.110488E-1,5.8256365E-2,4.0127467E-2,-1.3076685E-1,5.9271127E-1,6.928264E-2,4.5587093E-1,-1.1050741E-1,-5.6017786E-1,-2.2376962E-1,-3.7677723E-1,1.09103955E-1,3.3196008E-1,-6.441893E-1,-2.85508E-1,4.7502849E-1,-4.6999222E-1,3.1810054E-1,3.5358006E-1,-7.405538E-1,-2.1298157E-1,4.3489447E-1],"split_indices":[0,0,1,0,10,0,5,7,7,4,5,3,10,1,6,7,0,3,1,1,6,11,2,0,5,4,5,4,9,0,4,4,7,2,10,5,1,4,8,3,3,1,2,0,1,0,7,6,1,7,0,6,6,10,1,4,8,2,10,7,7,3,3,0,0,0,0,0,0,0,0,0,0,0,0,0,0,0,0,0,0,0,0,0,0,0,0,0,0,0,0,0,0,0,0,0,0,0,0,0,0,0,0,0,0,0,0,0,0,0,0,0,0,0,0,0,0,0,0,0,0,0,0,0,0,0,0],"split_type":[0,0,0,0,0,0,0,0,0,0,0,0,0,0,0,0,0,0,0,0,0,0,0,0,0,0,0,0,0,0,0,0,0,0,0,0,0,0,0,0,0,0,0,0,0,0,0,0,0,0,0,0,0,0,0,0,0,0,0,0,0,0,0,0,0,0,0,0,0,0,0,0,0,0,0,0,0,0,0,0,0,0,0,0,0,0,0,0,0,0,0,0,0,0,0,0,0,0,0,0,0,0,0,0,0,0,0,0,0,0,0,0,0,0,0,0,0,0,0,0,0,0,0,0,0,0,0],"sum_hessian":[1.30107E5,3.1518E4,9.8589E4,1.2198E4,1.932E4,6.1106E4,3.7483E4,1.518E3,1.068E4,1.61E3,1.771E4,2.9836E4,3.127E4,3.5297E4,2.186E3,1.037E3,4.81E2,7.496E3,3.184E3,2.87E2,1.323E3,1.2924E4,4.786E3,7.121E3,2.2715E4,5.039E3,2.6231E4,3.1724E4,3.573E3,1.048E3,1.138E3,1.56E2,8.81E2,1.48E2,3.33E2,6.695E3,8.01E2,2.13E2,2.971E3,1.1E2,1.77E2,1.211E3,1.12E2,4.343E3,8.581E3,4.207E3,5.79E2,2.434E3,4.687E3,2.1593E4,1.122E3,1.125E3,3.914E3,2.5003E4,1.228E3,1.8818E4,1.2906E4,1.494E3,2.079E3,6.69E2,3.79E2,8.6E1,1.052E3,1E0,1.55E2,7.6E1,8.05E2,1.45E2,3E0,2.37E2,9.6E1,6.44E3,2.55E2,7.75E2,2.6E1,1.6E1,1.97E2,3E2,2.671E3,6E0,1.04E2,1.01E2,7.6E1,1.156E3,5.5E1,8.2E1,3E1,8.91E2,3.452E3,8.126E3,4.55E2,2.16E3,2.047E3,4.29E2,1.5E2,7.36E2,1.698E3,2.594E3,2.093E3,2.1446E4,1.47E2,3.07E2,8.15E2,6.03E2,5.22E2,3.509E3,4.05E2,6.478E3,1.8525E4,3.75E2,8.53E2,3.75E2,1.8443E4,3.328E3,9.578E3,1.287E3,2.07E2,8.8E1,1.991E3,1.83E2,4.86E2,2.94E2,8.5E1,3.5E1,5.1E1,8.2E1,9.7E2],"tree_param":{"num_deleted":"0","num_feature":"12","num_nodes":"127","size_leaf_vector":"1"}},{"base_weights":[1.5970533E-4,2.4421356E0,-7.8053445E-1,4.022808E0,1.6328793E0,-3.3966142E-1,-2.0201955E0,7.057227E0,3.7027967E0,-1.2070658E0,1.9253213E0,2.2487639E-1,-1.2277104E0,-3.620091E0,-1.383276E0,5.869699E0,9.556344E0,3.166105E0,5.145138E0,2.28335E0,-1.8770679E0,2.515901E0,9.4989073E-1,9.372677E-2,2.9299192E0,-2.5980701E0,-9.4241035E-1,-1.956583E0,-4.640807E0,-1.66107E0,2.201536E0,6.6745744E0,2.4682424E0,9.9833765E0,2.878815E0,3.6097016E0,8.2064784E-1,5.376776E0,1.2096113E-2,5.531619E0,1.0575608E-1,-2.1566513E0,4.3080764E0,2.408764E0,8.64103E0,3.5755107E-1,3.4132848E0,-1.7776254E0,2.3011798E-1,-1.4596277E0,3.8251312E0,-2.8975148E0,3.0665407E0,-1.4130172E-1,-1.5878246E0,-6.6198725E-1,-3.661818E0,-2.1150486E0,-5.2806864E0,-9.6140367E-1,-2.796291E0,-4.13932E0,2.5941875E0,9.1915506E-1,5.5226874E-1,9.507497E-1,-8.4867276E-2,1.0449452E0,3.7942845E-1,1.7494349E-1,7.2413224E-1,3.9755365E-1,1.4758614E-1,6.4513224E-1,-4.3150704E-2,4.496885E-1,6.97017E-1,9.044761E-1,-5.184945E-1,7.964023E-1,2.246807E-1,-2.7258918E-1,1.9112402E-1,-2.9304397E-1,-5.929913E-2,1.3882005E-1,9.3083155E-1,2.802595E-1,1.6088209E-1,8.620911E-2,9.587E-1,1.8622388E-1,-5.445239E-2,1.8446504E-1,5.366615E-1,1.5818538E-1,-3.1937957E-1,1.3227879E-1,-1.624049E-2,-2.1945265E-1,1.1419903E0,1.6741805E-1,4.7652155E-1,-1.0964122E-1,-3.948451E-1,7.48059E-1,5.003168E-2,5.0911494E-2,-1.1158812E-1,-1.7366205E-1,3.46469E-1,5.1510273E-3,-3.9392495E-1,-4.2260852E-1,4.688529E-1,1.5519251E-1,-3.0351326E-1,-5.9344304E-1,-2.5458485E-1,-5.723052E-2,-3.0298552E-1,-5.1883715E-1,-2.3923448E-1,1.204524E-1,-7.155963E-1,2.3241678E-1,7.578553E-1],"categories":[],"categories_nodes":[],"categories_segments":[],"categories_sizes":[],"default_left":[0,0,0,0,0,0,0,0,0,0,0,0,0,0,0,0,0,0,0,0,0,0,0,0,0,0,0,0,0,0,0,0,0,0,0,0,0,0,0,0,0,0,0,0,0,0,0,0,0,0,0,0,0,0,0,0,0,0,0,0,0,0,0,0,0,0,0,0,0,0,0,0,0,0,0,0,0,0,0,0,0,0,0,0,0,0,0,0,0,0,0,0,0,0,0,0,0,0,0,0,0,0,0,0,0,0,0,0,0,0,0,0,0,0,0,0,0,0,0,0,0,0,0,0,0,0,0],"id":2,"left_children":[1,3,5,7,9,11,13,15,17,19,21,23,25,27,29,31,33,35,37,39,41,43,45,47,49,51,53,55,57,59,61,63,65,67,69,71,73,75,77,79,81,83,85,87,89,91,93,95,97,99,101,103,105,107,109,111,113,115,117,119,121,123,125,-1,-1,-1,-1,-1,-1,-1,-1,-1,-1,-1,-1,-1,-1,-1,-1,-1,-1,-1,-1,-1,-1,-1,-1,-1,-1,-1,-1,-1,-1,-1,-1,-1,-1,-1,-1,-1,-1,-1,-1,-1,-1,-1,-1,-1,-1,-1,-1,-1,-1,-1,-1,-1,-1,-1,-1,-1,-1,-1,-1,-1,-1,-1,-1],"loss_changes":[2.4804455E5,4.0311547E4,5.388202E4,1.0336891E4,1.7316996E4,3.6461035E4,2.635054E4,2.9621328E3,7.4583438E3,4.5575127E3,1.0886477E4,1.5773656E4,1.1048133E4,1.2494766E4,1.8427684E4,1.8780469E3,9.008535E2,7.3217188E3,3.1115781E3,2.2204663E3,2.8349067E3,7.7049688E3,1.0402634E4,1.0824457E4,8.084789E3,8.269566E3,1.2096604E4,6.183242E3,7.3634688E3,1.3635824E4,3.3245918E3,1.5699336E3,3.1367827E3,8.4303516E2,9.079727E1,4.6154844E3,7.906367E3,3.479289E3,5.398413E3,9.888447E2,9.714714E2,1.8906118E3,1.02368396E3,3.641164E3,1.4781807E3,7.8043687E3,4.224633E3,1.3711682E4,1.6953691E4,3.3283982E3,3.4457285E3,8.751961E3,2.7714795E3,6.6183027E3,9.747008E3,3.727483E3,5.716412E3,3.1222163E3,6.492789E3,8.549598E3,6.3137734E3,1.2660161E3,1.6701162E3,0E0,0E0,0E0,0E0,0E0,0E0,0E0,0E0,0E0,0E0,0E0,0E0,0E0,0E0,0E0,0E0,0E0,0E0,0E0,0E0,0E0,0E0,0E0,0E0,0E0,0E0,0E0,0E0,0E0,0E0,0E0,0E0,0E0,0E0,0E0,0E0,0E0,0E0,0E0,0E0,0E0,0E0,0E0,0E0,0E0,0E0,0E0,0E0,0E0,0E0,0E0,0E0,0E0,0E0,0E0,0E0,0E0,0E0,0E0,0E0,0E0,0E0,0E0,0E0],"parents":[2147483647,0,0,1,1,2,2,3,3,4,4,5,5,6,6,7,7,8,8,9,9,10,10,11,11,12,12,13,13,14,14,15,15,16,16,17,17,18,18,19,19,20,20,21,21,22,22,23,23,24,24,25,25,26,26,27,27,28,28,29,29,30,30,31,31,32,32,33,33,34,34,35,35,36,36,37,37,38,38,39,39,40,40,41,41,42,42,43,43,44,44,45,45,46,46,47,47,48,48,49,49,50,50,51,51,52,52,53,53,54,54,55,55,56,56,57,57,58,58,59,59,60,60,61,61,62,62],"right_children":[2,4,6,8,10,12,14,16,18,20,22,24,26,28,30,32,34,36,38,40,42,44,46,48,50,52,54,56,58,60,62,64,66,68,70,72,74,76,78,80,82,84,86,88,90,92,94,96,98,100,102,104,106,108,110,112,114,116,118,120,122,124,126,-1,-1,-1,-1,-1,-1,-1,-1,-1,-1,-1,-1,-1,-1,-1,-1,-1,-1,-1,-1,-1,-1,-1,-1,-1,-1,-1,-1,-1,-1,-1,-1,-1,-1,-1,-1,-1,-1,-1,-1,-1,-1,-1,-1,-1,-1,-1,-1,-1,-1,-1,-1,-1,-1,-1,-1,-1,-1,-1,-1,-1,-1,-1,-1],"split_conditions":[4.506E3,1.186E3,1.4239E4,2.25E2,6.1369604E2,2.364E4,2.1649757E-3,9.809567E1,7.167079E3,8.743916E1,1.4112E4,7.304436E3,5.1358E2,8.637119E1,7.24674E3,1.4947E4,8.121103E2,7.1560625E3,1.5045E4,7.4092964E1,9.871801E1,1.00016E2,2.5206583E-3,5.1358E2,7.1731745E-4,9.856139E1,9.449E3,9.786475E1,5.0554492E2,9.789243E1,8.731416E1,1.1862486E-3,5.836066E2,9.9494965E1,8.153901E2,1.4956E4,9.2E3,9.2402106E2,7.34E2,1.284E4,8.729042E1,2.881846E-3,1.5897646E-3,7.721607E2,5.537655E-4,9.792009E1,5.45053E-3,8.743916E1,6.946929E2,7.1932407E3,6.0643616E2,8.661741E1,4.4186935E2,6.838041E2,1.01436676E2,1.4987E4,8.6345985E1,7.477278E-4,7.0391235E2,1.1088854E-2,3.2065923E-3,1.6656728E-3,4.6688E4,9.1915506E-1,5.5226874E-1,9.507497E-1,-8.4867276E-2,1.0449452E0,3.7942845E-1,1.7494349E-1,7.2413224E-1,3.9755365E-1,1.4758614E-1,6.4513224E-1,-4.3150704E-2,4.496885E-1,6.97017E-1,9.044761E-1,-5.184945E-1,7.964023E-1,2.246807E-1,-2.7258918E-1,1.9112402E-1,-2.9304397E-1,-5.929913E-2,1.3882005E-1,9.3083155E-1,2.802595E-1,1.6088209E-1,8.620911E-2,9.587E-1,1.8622388E-1,-5.445239E-2,1.8446504E-1,5.366615E-1,1.5818538E-1,-3.1937957E-1,1.3227879E-1,-1.624049E-2,-2.1945265E-1,1.1419903E0,1.6741805E-1,4.7652155E-1,-1.0964122E-1,-3.948451E-1,7.48059E-1,5.003168E-2,5.0911494E-2,-1.1158812E-1,-1.7366205E-1,3.46469E-1,5.1510273E-3,-3.9392495E-1,-4.2260852E-1,4.688529E-1,1.5519251E-1,-3.0351326E-1,-5.9344304E-1,-2.5458485E-1,-5.723052E-2,-3.0298552E-1,-5.1883715E-1,-2.3923448E-1,1.204524E-1,-7.155963E-1,2.3241678E-1,7.578553E-1],"split_indices":[0,0,1,0,10,0,6,7,5,4,1,5,10,7,5,1,9,2,1,7,7,7,3,10,3,7,1,4,10,4,4,3,11,7,9,1,1,10,0,1,4,6,3,9,3,4,6,4,10,2,9,7,10,11,7,1,7,6,8,6,6,3,0,0,0,0,0,0,0,0,0,0,0,0,0,0,0,0,0,0,0,0,0,0,0,0,0,0,0,0,0,0,0,0,0,0,0,0,0,0,0,0,0,0,0,0,0,0,0,0,0,0,0,0,0,0,0,0,0,0,0,0,0,0,0,0,0],"split_type":[0,0,0,0,0,0,0,0,0,0,0,0,0,0,0,0,0,0,0,0,0,0,0,0,0,0,0,0,0,0,0,0,0,0,0,0,0,0,0,0,0,0,0,0,0,0,0,0,0,0,0,0,0,0,0,0,0,0,0,0,0,0,0,0,0,0,0,0,0,0,0,0,0,0,0,0,0,0,0,0,0,0,0,0,0,0,0,0,0,0,0,0,0,0,0,0,0,0,0,0,0,0,0,0,0,0,0,0,0,0,0,0,0,0,0,0,0,0,0,0,0,0,0,0,0,0,0],"sum_hessian":[1.30107E5,3.1518E4,9.8589E4,1.0671E4,2.0847E4,7.2726E4,2.5863E4,1.016E3,9.655E3,1.946E3,1.8901E4,4.4462E4,2.8264E4,7.363E3,1.85E4,6.91E2,3.25E2,7.039E3,2.616E3,3.13E2,1.633E3,1.1772E4,7.129E3,4.2407E4,2.055E3,4.869E3,2.3395E4,2.801E3,4.562E3,1.717E4,1.33E3,5.58E2,1.33E2,3.05E2,2E1,5.919E3,1.12E3,2.503E3,1.13E2,1.25E2,1.88E2,1.563E3,7E1,1.1571E4,2.01E2,5.748E3,1.381E3,2.88E3,3.9527E4,3.48E2,1.707E3,4.625E3,2.44E2,1.0439E4,1.2956E4,1.593E3,1.208E3,9.23E2,3.639E3,1.0624E4,6.546E3,7.7E1,1.253E3,1.73E2,3.85E2,4.2E1,9.1E1,2.83E2,2.2E1,1.7E1,3E0,5.052E3,8.67E2,2.03E2,9.17E2,1.615E3,8.88E2,4.1E1,7.2E1,7.1E1,5.4E1,7.3E1,1.15E2,1.045E3,5.18E2,4.5E1,2.5E1,7.752E3,3.819E3,2.2E1,1.79E2,2.154E3,3.594E3,7.67E2,6.14E2,8.54E2,2.026E3,1.0446E4,2.9081E4,3.3E2,1.8E1,5.2E2,1.187E3,1.705E3,2.92E3,8.9E1,1.55E2,6.261E3,4.178E3,1.2586E4,3.7E2,1.309E3,2.84E2,1.132E3,7.6E1,1.85E2,7.38E2,2.936E3,7.03E2,8.943E3,1.681E3,9.44E2,5.602E3,2.8E1,4.9E1,1.19E3,6.3E1],"tree_param":{"num_deleted":"0","num_feature":"12","num_nodes":"127","size_leaf_vector":"1"}},{"base_weights":[2.2992419E-4,2.327305E0,-6.6677564E-1,3.6212144E0,1.5731865E0,2.0430578E-1,-1.2200433E0,5.484814E0,3.1801546E0,-8.3176935E-1,1.8156546E0,1.678451E0,-8.00542E-2,-1.4266704E0,1.5953386E0,4.438065E0,7.644046E0,2.9048362E0,5.4299893E0,1.1758894E0,-1.7444116E0,3.0444727E0,1.36257E0,1.2851725E0,3.1360397E0,-1.6800311E0,1.2518762E-1,-1.249167E0,-4.0143886E0,2.9919186E0,4.0586662E-1,8.346286E0,3.8016262E0,7.9884453E0,2.6017616E0,2.3954072E0,4.1431274E0,4.502144E0,8.41058E0,3.4110823E0,9.673725E-3,-2.3270366E0,2.358216E0,4.3463497E0,2.3619657E0,7.0363235E-1,2.6927066E0,1.1792009E0,6.6906867E0,3.5682762E0,-4.7762212E-1,1.0846815E0,-3.1030889E0,1.0434915E0,-3.489022E-1,-5.2950525E0,-1.1519437E0,-4.5598817E0,-1.0619704E0,5.1758018E0,2.3272896E0,-1.5653187E0,1.6762092E0,3.4286946E-1,9.061921E-1,-9.9813454E-2,4.322907E-1,8.877813E-1,5.628883E-1,-5.8760756E-1,5.6057703E-1,2.9410255E-1,-4.015255E-3,4.6707803E-1,1.4622928E-1,6.2153095E-1,2.7280384E-1,7.1280867E-1,1.0733093E0,-3.898393E-1,5.394592E-1,-4.0029667E-2,6.712206E-1,-2.5913748E-1,2.9155114E-1,1.095747E-1,9.7004986E-1,5.1302767E-1,3.2180083E-1,2.9683942E-1,-4.749208E-2,-2.525206E-1,9.4004534E-2,7.52585E-1,2.4803476E-1,1.0124111E-1,4.4197384E-1,-8.607716E-1,7.449397E-1,2.424074E-1,6.5325505E-1,4.7599706E-1,-2.8821388E-1,-6.6255844E-1,1.628024E-1,2.6468059E-2,-3.8608846E-1,-7.3046894E-3,1.5623595E-1,-4.7343828E-2,3.314544E-1,-6.213247E-1,-1.4470033E-1,-4.2232137E-2,-1.5834022E-1,-3.0006948E-1,-5.4781383E-1,2.2319762E-1,-2.1906066E-1,5.770778E-1,8.547985E-2,1.2914762E-1,4.4972396E-1,-2.1323891E-1,7.144475E-1,-9.3622856E-2,2.982029E-1],"categories":[],"categories_nodes":[],"categories_segments":[],"categories_sizes":[],"default_left":[0,0,0,0,0,0,0,0,0,0,0,0,0,0,0,0,0,0,0,0,0,0,0,0,0,0,0,0,0,0,0,0,0,0,0,0,0,0,0,0,0,0,0,0,0,0,0,0,0,0,0,0,0,0,0,0,0,0,0,0,0,0,0,0,0,0,0,0,0,0,0,0,0,0,0,0,0,0,0,0,0,0,0,0,0,0,0,0,0,0,0,0,0,0,0,0,0,0,0,0,0,0,0,0,0,0,0,0,0,0,0,0,0,0,0,0,0,0,0,0,0,0,0,0,0,0,0],"id":3,"left_children":[1,3,5,7,9,11,13,15,17,19,21,23,25,27,29,31,33,35,37,39,41,43,45,47,49,51,53,55,57,59,61,63,65,67,69,71,73,75,77,79,81,83,85,87,89,91,93,95,97,99,101,103,105,107,109,111,113,115,117,119,121,123,125,-1,-1,-1,-1,-1,-1,-1,-1,-1,-1,-1,-1,-1,-1,-1,-1,-1,-1,-1,-1,-1,-1,-1,-1,-1,-1,-1,-1,-1,-1,-1,-1,-1,-1,-1,-1,-1,-1,-1,-1,-1,-1,-1,-1,-1,-1,-1,-1,-1,-1,-1,-1,-1,-1,-1,-1,-1,-1,-1,-1,-1,-1,-1,-1],"loss_changes":[2.0195158E5,2.827675E4,4.8736074E4,8.7545E3,1.0680863E4,1.6466252E4,3.5979055E4,4.579086E3,5.3310703E3,3.0766072E3,9.258645E3,3.6371816E3,1.0813835E4,2.6459672E4,7.023968E3,3.3933438E3,1.1340273E3,4.8429805E3,2.5617324E3,1.3684934E3,2.7638862E3,3.9712812E3,1.06534375E4,2.8585557E3,2.1087842E3,1.4733558E4,1.2707174E4,2.120318E4,5.950875E3,2.8110684E3,5.7244478E3,6.446162E2,2.9717168E3,1.2553125E3,1.1535098E3,7.2465312E3,3.1631758E3,2.1683271E3,5.8474414E2,2.630745E3,9.534395E2,1.4086055E3,1.3241648E3,1.3456777E3,5.0627324E3,6.209086E3,4.114492E3,2.6487842E3,1.1783994E3,4.0711982E3,1.8398313E3,5.343785E3,6.3097676E3,5.7575557E3,8.78402E3,4.460578E3,1.6575219E4,4.452E3,2.1537012E3,1.1596826E3,3.3499536E3,4.440638E3,4.7445996E3,0E0,0E0,0E0,0E0,0E0,0E0,0E0,0E0,0E0,0E0,0E0,0E0,0E0,0E0,0E0,0E0,0E0,0E0,0E0,0E0,0E0,0E0,0E0,0E0,0E0,0E0,0E0,0E0,0E0,0E0,0E0,0E0,0E0,0E0,0E0,0E0,0E0,0E0,0E0,0E0,0E0,0E0,0E0,0E0,0E0,0E0,0E0,0E0,0E0,0E0,0E0,0E0,0E0,0E0,0E0,0E0,0E0,0E0,0E0,0E0,0E0,0E0,0E0,0E0],"parents":[2147483647,0,0,1,1,2,2,3,3,4,4,5,5,6,6,7,7,8,8,9,9,10,10,11,11,12,12,13,13,14,14,15,15,16,16,17,17,18,18,19,19,20,20,21,21,22,22,23,23,24,24,25,25,26,26,27,27,28,28,29,29,30,30,31,31,32,32,33,33,34,34,35,35,36,36,37,37,38,38,39,39,40,40,41,41,42,42,43,43,44,44,45,45,46,46,47,47,48,48,49,49,50,50,51,51,52,52,53,53,54,54,55,55,56,56,57,57,58,58,59,59,60,60,61,61,62,62],"right_children":[2,4,6,8,10,12,14,16,18,20,22,24,26,28,30,32,34,36,38,40,42,44,46,48,50,52,54,56,58,60,62,64,66,68,70,72,74,76,78,80,82,84,86,88,90,92,94,96,98,100,102,104,106,108,110,112,114,116,118,120,122,124,126,-1,-1,-1,-1,-1,-1,-1,-1,-1,-1,-1,-1,-1,-1,-1,-1,-1,-1,-1,-1,-1,-1,-1,-1,-1,-1,-1,-1,-1,-1,-1,-1,-1,-1,-1,-1,-1,-1,-1,-1,-1,-1,-1,-1,-1,-1,-1,-1,-1,-1,-1,-1,-1,-1,-1,-1,-1,-1,-1,-1,-1,-1,-1,-1],"split_conditions":[4.071E3,1.186E3,1.0173E4,3.38E2,6.1369604E2,7.827E3,7.232828E3,9.809567E1,7.2148853E3,4.6944284E2,7.062075E3,9.893803E1,5.1358E2,1.5068E4,1.2914E4,6.6796936E1,9.9494965E1,9.8580215E1,8.233646E2,7.405671E1,9.768401E1,2.002E3,7.17164E3,7.3993623E3,8.0424084E2,8.6447014E1,6.6534894E2,4.2600508E-4,9.873162E1,6.2768955E1,8.304263E-2,8.231E3,7.384915E1,8.1083875E2,7.065957E3,9.755494E1,1.40216965E-2,7.85E2,1.2831596E-2,3.7762396E2,5.129085E2,3.1230042E-3,2.0639822E-3,6.1231525E2,1.493E4,7.0811424E1,1.194615E-3,8.271358E2,4.1304724E-4,7.1690225E3,9.864899E1,6.6978257E3,4.2032645E2,9.768579E1,7.304436E3,1.4848628E-3,1.2628E4,6.8759043E3,1.2306E4,2.1721188E-3,2.3239001E-3,3.2796033E-3,6.8685293E3,3.4286946E-1,9.061921E-1,-9.9813454E-2,4.322907E-1,8.877813E-1,5.628883E-1,-5.8760756E-1,5.6057703E-1,2.9410255E-1,-4.015255E-3,4.6707803E-1,1.4622928E-1,6.2153095E-1,2.7280384E-1,7.1280867E-1,1.0733093E0,-3.898393E-1,5.394592E-1,-4.0029667E-2,6.712206E-1,-2.5913748E-1,2.9155114E-1,1.095747E-1,9.7004986E-1,5.1302767E-1,3.2180083E-1,2.9683942E-1,-4.749208E-2,-2.525206E-1,9.4004534E-2,7.52585E-1,2.4803476E-1,1.0124111E-1,4.4197384E-1,-8.607716E-1,7.449397E-1,2.424074E-1,6.5325505E-1,4.7599706E-1,-2.8821388E-1,-6.6255844E-1,1.628024E-1,2.6468059E-2,-3.8608846E-1,-7.3046894E-3,1.5623595E-1,-4.7343828E-2,3.314544E-1,-6.213247E-1,-1.4470033E-1,-4.2232137E-2,-1.5834022E-1,-3.0006948E-1,-5.4781383E-1,2.2319762E-1,-2.1906066E-1,5.770778E-1,8.547985E-2,1.2914762E-1,4.4972396E-1,-2.1323891E-1,7.144475E-1,-9.3622856E-2,2.982029E-1],"split_indices":[0,0,1,0,10,0,5,7,5,11,2,7,10,1,0,7,7,7,8,7,7,0,5,5,11,7,9,6,7,7,6,1,7,8,2,7,6,0,6,11,8,3,3,11,1,7,6,8,3,2,4,5,9,4,5,3,0,5,0,3,3,3,2,0,0,0,0,0,0,0,0,0,0,0,0,0,0,0,0,0,0,0,0,0,0,0,0,0,0,0,0,0,0,0,0,0,0,0,0,0,0,0,0,0,0,0,0,0,0,0,0,0,0,0,0,0,0,0,0,0,0,0,0,0,0,0,0],"split_type":[0,0,0,0,0,0,0,0,0,0,0,0,0,0,0,0,0,0,0,0,0,0,0,0,0,0,0,0,0,0,0,0,0,0,0,0,0,0,0,0,0,0,0,0,0,0,0,0,0,0,0,0,0,0,0,0,0,0,0,0,0,0,0,0,0,0,0,0,0,0,0,0,0,0,0,0,0,0,0,0,0,0,0,0,0,0,0,0,0,0,0,0,0,0,0,0,0,0,0,0,0,0,0,0,0,0,0,0,0,0,0,0,0,0,0,0,0,0,0,0,0,0,0,0,0,0,0],"sum_hessian":[1.30107E5,2.8984E4,1.01123E5,1.0671E4,1.8313E4,3.928E4,6.1843E4,2.04E3,8.631E3,1.677E3,1.6636E4,6.351E3,3.2929E4,5.7615E4,4.228E3,1.376E3,6.64E2,7.692E3,9.39E2,5.24E2,1.153E3,4.48E3,1.2156E4,5.003E3,1.348E3,3.743E3,2.9186E4,5.3918E4,3.697E3,1.944E3,2.284E3,1.91E2,1.185E3,6.21E2,4.3E1,5.452E3,2.24E3,7.18E2,2.21E2,1.79E2,3.45E2,1.01E3,1.43E2,1.539E3,2.941E3,8.13E3,4.026E3,4.908E3,9.5E1,1.204E3,1.44E2,1.272E3,2.471E3,9.937E3,1.9249E4,1.264E3,5.2654E4,3.12E3,5.77E2,4.52E2,1.492E3,8.95E2,1.389E3,2.5E1,1.66E2,1.16E2,1.069E3,4.49E2,1.72E2,1.1E1,3.2E1,4.454E3,9.98E2,1.871E3,3.69E2,3.64E2,3.54E2,1.45E2,7.6E1,3.8E1,1.41E2,3.26E2,1.9E1,9.62E2,4.8E1,1.23E2,2E1,9.06E2,6.33E2,2.423E3,5.18E2,5.54E2,7.576E3,1.68E2,3.858E3,4.669E3,2.39E2,4E0,9.1E1,8.7E2,3.34E2,4.5E1,9.9E1,8.3E1,1.189E3,4.54E2,2.017E3,3.153E3,6.784E3,1.8617E4,6.32E2,1.02E3,2.44E2,1.9567E4,3.3087E4,1.158E3,1.962E3,1.47E2,4.3E2,3.97E2,5.5E1,1.011E3,4.81E2,8.41E2,5.4E1,4.63E2,9.26E2],"tree_param":{"num_deleted":"0","num_feature":"12","num_nodes":"127","size_leaf_vector":"1"}},{"base_weights":[2.9655528E-4,1.9626676E0,-6.4074755E-1,3.142306E0,1.237209E0,-1.5567043E-1,-1.4328142E0,4.937805E0,2.781271E0,1.4791164E0,-1.3282999E0,5.1357293E-1,-7.881626E-1,-2.674744E0,-9.5957273E-1,3.9954069E0,6.881782E0,2.343354E0,3.969709E0,1.0783081E0,2.6218767E0,4.9874697E0,-1.7995613E0,-3.6750045E-1,7.889932E-1,-1.4311361E0,-1.80103E-1,-5.740735E0,-2.3640146E0,-1.137937E0,2.3567286E0,7.5181627E0,3.4217436E0,7.1919327E0,2.340971E0,2.0416362E0,4.933774E0,7.687074E0,3.7062664E0,1.3411996E0,-6.522496E-1,3.014081E0,-1.1471581E-1,7.2561064E0,1.3577263E0,-2.9058657E0,6.3658917E-1,-1.4170359E0,4.432604E-1,7.2354674E-1,5.241546E0,-2.0322812E0,-7.0183486E-1,2.547025E-1,-1.2291368E0,-2.5674708E0,-6.829444E0,-1.3715067E0,-3.64376E0,-5.5613405E-1,-2.0361433E0,-2.1466818E0,2.753273E0,3.0990133E-1,8.1611556E-1,-8.9917414E-2,3.89102E-1,7.992005E-1,5.069248E-1,5.0649166E-1,-5.344961E-1,1.8637982E-1,6.5145606E-1,3.98111E-1,7.45685E-1,-1.7754532E-2,8.455437E-1,5.3075814E-1,3.021495E-1,9.143209E-2,2.5059792E-1,-1.1541512E-1,8.214502E-1,2.2921693E-1,3.709067E-1,-2.502798E-1,2.0580387E-1,3.2126862E-1,9.700619E-1,-7.423115E-2,9.202098E-1,-1.3959281E-1,-4.6607223E-1,-1.2077852E-1,5.554761E-1,5.369167E-1,-1.6122073E-1,5.0079554E-1,2.2273732E-2,6.2012922E-2,2.7192312E-1,9.466042E-1,4.1327667E-1,-2.2258031E-1,2.726521E-1,2.7582848E-1,-1.5138792E-1,5.132502E-3,3.3862895E-1,-1.3376118E-1,7.0600027E-1,5.8961606E-1,-3.2707664E-1,-7.139618E-1,-4.2890888E-1,-6.837971E-2,-2.737941E-1,-4.6866417E-1,-1.9778745E-1,3.048726E-1,-6.993938E-2,-4.2285782E-1,-1.5563595E-1,-3.730668E-1,5.8028644E-1,5.2440447E-1,1.8838735E-1],"categories":[],"categories_nodes":[],"categories_segments":[],"categories_sizes":[],"default_left":[0,0,0,0,0,0,0,0,0,0,0,0,0,0,0,0,0,0,0,0,0,0,0,0,0,0,0,0,0,0,0,0,0,0,0,0,0,0,0,0,0,0,0,0,0,0,0,0,0,0,0,0,0,0,0,0,0,0,0,0,0,0,0,0,0,0,0,0,0,0,0,0,0,0,0,0,0,0,0,0,0,0,0,0,0,0,0,0,0,0,0,0,0,0,0,0,0,0,0,0,0,0,0,0,0,0,0,0,0,0,0,0,0,0,0,0,0,0,0,0,0,0,0,0,0,0,0],"id":4,"left_children":[1,3,5,7,9,11,13,15,17,19,21,23,25,27,29,31,33,35,37,39,41,43,45,47,49,51,53,55,57,59,61,63,65,67,69,71,73,75,77,79,81,83,85,87,89,91,93,95,97,99,101,103,105,107,109,111,113,115,117,119,121,123,125,-1,-1,-1,-1,-1,-1,-1,-1,-1,-1,-1,-1,-1,-1,-1,-1,-1,-1,-1,-1,-1,-1,-1,-1,-1,-1,-1,-1,-1,-1,-1,-1,-1,-1,-1,-1,-1,-1,-1,-1,-1,-1,-1,-1,-1,-1,-1,-1,-1,-1,-1,-1,-1,-1,-1,-1,-1,-1,-1,-1,-1,-1,-1,-1],"loss_changes":[1.6367275E5,2.7412695E4,3.7680363E4,7.894133E3,1.2314361E4,2.574667E4,2.1889883E4,3.7116172E3,5.2778125E3,8.301219E3,5.098583E3,7.172024E3,1.2225646E4,9.777258E3,1.5957461E4,2.7570215E3,9.1970703E2,5.79391E3,2.6489453E3,6.1081123E3,5.052381E3,9.7006177E2,4.2924873E3,5.99027E3,6.55745E3,6.662051E3,7.331621E3,3.247211E3,1.1849379E4,1.3375324E4,2.4649595E3,5.2027344E2,2.4083555E3,1.0158301E3,9.4825854E2,5.2800312E3,1.8307344E3,1.0892197E3,2.7856133E3,5.7923066E3,7.8908506E3,2.0570742E3,3.0716821E3,6.903811E2,7.810842E2,2.8949424E3,4.524042E3,4.0721387E3,3.997182E3,4.578287E3,1.487875E3,7.6783633E3,1.9304486E4,7.237492E3,4.244504E3,1.4657268E3,5.233086E2,4.939123E3,7.0720586E3,8.02541E3,1.0577582E4,1.4319495E3,2.7316133E3,0E0,0E0,0E0,0E0,0E0,0E0,0E0,0E0,0E0,0E0,0E0,0E0,0E0,0E0,0E0,0E0,0E0,0E0,0E0,0E0,0E0,0E0,0E0,0E0,0E0,0E0,0E0,0E0,0E0,0E0,0E0,0E0,0E0,0E0,0E0,0E0,0E0,0E0,0E0,0E0,0E0,0E0,0E0,0E0,0E0,0E0,0E0,0E0,0E0,0E0,0E0,0E0,0E0,0E0,0E0,0E0,0E0,0E0,0E0,0E0,0E0,0E0,0E0,0E0],"parents":[2147483647,0,0,1,1,2,2,3,3,4,4,5,5,6,6,7,7,8,8,9,9,10,10,11,11,12,12,13,13,14,14,15,15,16,16,17,17,18,18,19,19,20,20,21,21,22,22,23,23,24,24,25,25,26,26,27,27,28,28,29,29,30,30,31,31,32,32,33,33,34,34,35,35,36,36,37,37,38,38,39,39,40,40,41,41,42,42,43,43,44,44,45,45,46,46,47,47,48,48,49,49,50,50,51,51,52,52,53,53,54,54,55,55,56,56,57,57,58,58,59,59,60,60,61,61,62,62],"right_children":[2,4,6,8,10,12,14,16,18,20,22,24,26,28,30,32,34,36,38,40,42,44,46,48,50,52,54,56,58,60,62,64,66,68,70,72,74,76,78,80,82,84,86,88,90,92,94,96,98,100,102,104,106,108,110,112,114,116,118,120,122,124,126,-1,-1,-1,-1,-1,-1,-1,-1,-1,-1,-1,-1,-1,-1,-1,-1,-1,-1,-1,-1,-1,-1,-1,-1,-1,-1,-1,-1,-1,-1,-1,-1,-1,-1,-1,-1,-1,-1,-1,-1,-1,-1,-1,-1,-1,-1,-1,-1,-1,-1,-1,-1,-1,-1,-1,-1,-1,-1,-1,-1,-1,-1,-1,-1],"split_conditions":[4.601E3,1.39E3,1.3201E4,3.38E2,1.4965E4,1.8829E4,2.2977993E-3,9.809567E1,9.870543E1,7.17164E3,7.384915E1,7.105869E-4,4.110831E-3,4.0428204E-4,7.353035E3,6.6796936E1,9.9494965E1,4.0902174E-3,1.818E3,9.85926E1,7.1946333E3,3.689E3,1.9598631E-3,9.827229E1,1.00016E2,9.768579E1,1.1211E4,1.0422E4,9.725714E1,9.794033E1,5.701E3,8.231E3,7.384915E1,8.1083875E2,1.5209905E-3,7.3993623E3,6.1589307E2,9.198398E1,7.036856E2,9.860422E1,8.108156E2,2.861E3,9.8766136E1,9.20028E1,1.684143E-3,2.861E3,7.0276333E3,4.0536377E2,7.402978E1,7.304436E3,7.349025E2,1.284E4,9.786144E1,7.304436E3,7.73873E2,8.624126E1,1.4848628E-3,1.6384189E-3,9.838689E1,2.435528E-3,7.0045404E2,9.854096E1,1.1414E4,3.0990133E-1,8.1611556E-1,-8.9917414E-2,3.89102E-1,7.992005E-1,5.069248E-1,5.0649166E-1,-5.344961E-1,1.8637982E-1,6.5145606E-1,3.98111E-1,7.45685E-1,-1.7754532E-2,8.455437E-1,5.3075814E-1,3.021495E-1,9.143209E-2,2.5059792E-1,-1.1541512E-1,8.214502E-1,2.2921693E-1,3.709067E-1,-2.502798E-1,2.0580387E-1,3.2126862E-1,9.700619E-1,-7.423115E-2,9.202098E-1,-1.3959281E-1,-4.6607223E-1,-1.2077852E-1,5.554761E-1,5.369167E-1,-1.6122073E-1,5.0079554E-1,2.2273732E-2,6.2012922E-2,2.7192312E-1,9.466042E-1,4.1327667E-1,-2.2258031E-1,2.726521E-1,2.7582848E-1,-1.5138792E-1,5.132502E-3,3.3862895E-1,-1.3376118E-1,7.0600027E-1,5.8961606E-1,-3.2707664E-1,-7.139618E-1,-4.2890888E-1,-6.837971E-2,-2.737941E-1,-4.6866417E-1,-1.9778745E-1,3.048726E-1,-6.993938E-2,-4.2285782E-1,-1.5563595E-1,-3.730668E-1,5.8028644E-1,5.2440447E-1,1.8838735E-1],"split_indices":[0,0,1,0,1,0,6,7,7,5,7,3,6,6,5,7,7,3,1,4,2,0,3,4,7,4,1,0,7,4,0,1,7,8,3,5,11,4,8,7,9,0,7,4,3,0,5,11,7,5,10,1,4,5,9,7,3,6,7,6,8,7,0,0,0,0,0,0,0,0,0,0,0,0,0,0,0,0,0,0,0,0,0,0,0,0,0,0,0,0,0,0,0,0,0,0,0,0,0,0,0,0,0,0,0,0,0,0,0,0,0,0,0,0,0,0,0,0,0,0,0,0,0,0,0,0,0],"split_type":[0,0,0,0,0,0,0,0,0,0,0,0,0,0,0,0,0,0,0,0,0,0,0,0,0,0,0,0,0,0,0,0,0,0,0,0,0,0,0,0,0,0,0,0,0,0,0,0,0,0,0,0,0,0,0,0,0,0,0,0,0,0,0,0,0,0,0,0,0,0,0,0,0,0,0,0,0,0,0,0,0,0,0,0,0,0,0,0,0,0,0,0,0,0,0,0,0,0,0,0,0,0,0,0,0,0,0,0,0,0,0,0,0,0,0,0,0,0,0,0,0,0,0,0,0,0,0],"sum_hessian":[1.30107E5,3.2036E4,9.8071E4,1.2198E4,1.9838E4,6.0823E4,3.7248E4,2.04E3,1.0158E4,1.8129E4,1.709E3,2.9553E4,3.127E4,1.0276E4,2.6972E4,1.376E3,6.64E2,7.425E3,2.733E3,1.3423E4,4.706E3,1.18E2,1.591E3,7.038E3,2.2515E4,1.5198E4,1.6072E4,9.44E2,9.332E3,2.5596E4,1.376E3,1.91E2,1.185E3,6.21E2,4.3E1,6.652E3,7.73E2,1.79E2,2.554E3,1.1653E4,1.77E3,4.116E3,5.9E2,7.2E1,4.6E1,1.094E3,4.97E2,3.067E3,3.971E3,2.219E4,3.25E2,8.33E3,6.868E3,1.1363E4,4.709E3,2.42E2,7.02E2,5.257E3,4.075E3,1.5535E4,1.0061E4,1.11E2,1.265E3,2.5E1,1.66E2,1.16E2,1.069E3,4.49E2,1.72E2,3.2E1,1.1E1,6.399E3,2.53E2,5.63E2,2.1E2,1.6E1,1.63E2,7.63E2,1.791E3,8.529E3,3.124E3,1.676E3,9.4E1,2.021E3,2.095E3,2.81E2,3.09E2,2.8E1,4.4E1,3.7E1,9E0,5.89E2,5.05E2,3.62E2,1.35E2,8.5E1,2.982E3,1.82E2,3.789E3,2.1098E4,1.092E3,6.6E1,2.59E2,8.005E3,3.25E2,1.305E3,5.563E3,1.0671E4,6.92E2,4.649E3,6E1,1.8E1,2.24E2,6.24E2,7.8E1,3.498E3,1.759E3,2.505E3,1.57E3,5.93E2,1.4942E4,1.805E3,8.256E3,9.3E1,1.8E1,3.26E2,9.39E2],"tree_param":{"num_deleted":"0","num_feature":"12","num_nodes":"127","size_leaf_vector":"1"}},{"base_weights":[3.6104769E-4,1.8922509E0,-5.4190814E-1,2.9385843E0,1.2824243E0,1.8982375E-1,-1.0066681E0,5.3090143E0,2.6886191E0,8.9128906E-1,2.4197485E0,7.811597E-1,-3.253543E-1,-1.1781291E0,1.3295584E0,5.874356E0,1.8960918E0,2.2556648E0,3.8522835E0,1.860195E0,4.149028E-1,4.1112185E0,1.526362E0,1.4412435E0,4.2987528E-1,-4.4653463E-1,3.6375506E0,-1.0103762E0,-3.0972338E0,2.5432332E0,2.9589218E-1,7.139162E0,4.627736E0,7.028864E0,-1.766643E0,2.542721E0,-7.15604E-1,4.0657268E0,-8.6977327E-1,-1.5139581E0,2.2186718E0,-8.893125E-2,1.4981507E0,3.381644E0,7.7117896E0,6.3335905E-3,3.4053428E0,1.1792439E0,3.1999512E0,1.2091327E0,1.047465E-2,-3.954203E-1,-7.110612E0,1.7624093E0,8.544099E0,-2.4491827E-1,-1.366491E0,-3.6880798E0,-1.6896145E0,-5.931329E0,2.7152126E0,-1.3905458E0,1.3827646E0,7.3565125E-1,-1.0630399E-1,5.844566E-1,1.5635936E-1,1.7838483E-1,7.9023504E-1,-4.0013823E-1,7.5391454E-1,2.256166E-1,4.5820245E-1,4.7067162E-1,-1.7778368E-1,4.9384305E-1,2.5421634E-1,-5.082733E-1,8.0351096E-1,4.271024E-1,-2.4948768E-1,3.1959766E-1,7.621344E-2,-4.0692344E-2,2.4979702E-1,4.2704564E-1,6.310492E-2,6.851628E-1,2.7024782E-1,-4.334495E-1,7.999806E-1,-4.1709106E-2,6.994958E-1,4.603048E-1,1.1842634E-1,7.581399E-2,2.2747178E-1,6.5928626E-1,2.3965226E-1,-9.048297E-2,2.0968445E-1,-1.1020906E-1,4.6113722E-2,-2.2743426E-1,-2.5217472E-2,6.002332E-1,-7.321254E-1,2.4255894E-1,-7.322249E-1,-8.8576907E-1,9.011151E-1,7.5788125E-2,-7.274057E-2,-5.0283635E-1,-1.2664847E-1,-2.3079796E-1,-5.572275E-1,-7.2943926E-2,-7.05478E-1,-8.190837E-1,5.56797E-1,1.0162586E-1,3.4662506E-1,-1.9028871E-1,6.478216E-1,-3.454351E-1,1.9445615E-1],"categories":[],"categories_nodes":[],"categories_segments":[],"categories_sizes":[],"default_left":[0,0,0,0,0,0,0,0,0,0,0,0,0,0,0,0,0,0,0,0,0,0,0,0,0,0,0,0,0,0,0,0,0,0,0,0,0,0,0,0,0,0,0,0,0,0,0,0,0,0,0,0,0,0,0,0,0,0,0,0,0,0,0,0,0,0,0,0,0,0,0,0,0,0,0,0,0,0,0,0,0,0,0,0,0,0,0,0,0,0,0,0,0,0,0,0,0,0,0,0,0,0,0,0,0,0,0,0,0,0,0,0,0,0,0,0,0,0,0,0,0,0,0,0,0,0,0],"id":5,"left_children":[1,3,5,7,9,11,13,15,17,19,21,23,25,27,29,31,33,35,37,39,41,43,45,47,49,51,53,55,57,59,61,63,65,67,69,71,73,75,77,79,81,83,85,87,89,91,93,95,97,99,101,103,105,107,109,111,113,115,117,119,121,123,125,-1,-1,-1,-1,-1,-1,-1,-1,-1,-1,-1,-1,-1,-1,-1,-1,-1,-1,-1,-1,-1,-1,-1,-1,-1,-1,-1,-1,-1,-1,-1,-1,-1,-1,-1,-1,-1,-1,-1,-1,-1,-1,-1,-1,-1,-1,-1,-1,-1,-1,-1,-1,-1,-1,-1,-1,-1,-1,-1,-1,-1,-1,-1,-1],"loss_changes":[1.3348058E5,1.8491047E4,3.4390414E4,6.3091562E3,8.1447812E3,1.1966949E4,2.477452E4,1.9511289E3,4.856125E3,6.2900127E3,7.07491E3,4.2401807E3,1.0083012E4,1.8545492E4,5.304675E3,1.3418711E3,2.7572153E3,6.0063906E3,2.6411914E3,5.4366816E3,4.987445E3,4.2268496E3,8.762506E3,2.9231045E3,3.9015767E3,6.936159E3,5.716835E3,1.4443164E4,3.8453047E3,2.8508457E3,4.1901973E3,7.7618555E2,1.6388779E3,2.6537158E2,1.818624E3,3.741336E3,3.5851826E3,3.3168125E3,4.3176543E3,2.4620815E3,5.7783184E3,5.1324854E3,6.9709336E3,3.1583076E3,9.7838574E2,5.0246055E3,3.6443418E3,2.549312E3,2.227668E3,7.840412E3,3.892309E3,5.4407793E3,4.7207666E2,2.740954E3,1.4777559E3,8.141128E3,1.3236547E4,8.466973E3,7.0575605E3,1.058934E3,2.4297676E3,3.624543E3,3.7840098E3,0E0,0E0,0E0,0E0,0E0,0E0,0E0,0E0,0E0,0E0,0E0,0E0,0E0,0E0,0E0,0E0,0E0,0E0,0E0,0E0,0E0,0E0,0E0,0E0,0E0,0E0,0E0,0E0,0E0,0E0,0E0,0E0,0E0,0E0,0E0,0E0,0E0,0E0,0E0,0E0,0E0,0E0,0E0,0E0,0E0,0E0,0E0,0E0,0E0,0E0,0E0,0E0,0E0,0E0,0E0,0E0,0E0,0E0,0E0,0E0,0E0,0E0,0E0,0E0],"parents":[2147483647,0,0,1,1,2,2,3,3,4,4,5,5,6,6,7,7,8,8,9,9,10,10,11,11,12,12,13,13,14,14,15,15,16,16,17,17,18,18,19,19,20,20,21,21,22,22,23,23,24,24,25,25,26,26,27,27,28,28,29,29,30,30,31,31,32,32,33,33,34,34,35,35,36,36,37,37,38,38,39,39,40,40,41,41,42,42,43,43,44,44,45,45,46,46,47,47,48,48,49,49,50,50,51,51,52,52,53,53,54,54,55,55,56,56,57,57,58,58,59,59,60,60,61,61,62,62],"right_children":[2,4,6,8,10,12,14,16,18,20,22,24,26,28,30,32,34,36,38,40,42,44,46,48,50,52,54,56,58,60,62,64,66,68,70,72,74,76,78,80,82,84,86,88,90,92,94,96,98,100,102,104,106,108,110,112,114,116,118,120,122,124,126,-1,-1,-1,-1,-1,-1,-1,-1,-1,-1,-1,-1,-1,-1,-1,-1,-1,-1,-1,-1,-1,-1,-1,-1,-1,-1,-1,-1,-1,-1,-1,-1,-1,-1,-1,-1,-1,-1,-1,-1,-1,-1,-1,-1,-1,-1,-1,-1,-1,-1,-1,-1,-1,-1,-1,-1,-1,-1,-1,-1,-1,-1,-1,-1],"split_conditions":[4.071E3,1.186E3,1.0173E4,2.25E2,2.6301178E-3,1.7116E4,7.232828E3,1.4947E4,7.167079E3,1.1211E4,8.6277336E1,7.827E3,7.304436E3,1.503E4,1.2914E4,1.6E2,6.016231E2,7.329681E2,1.5045E4,6.1522577E2,9.846966E1,8.269138E2,9.8801834E1,9.906047E1,7.174255E2,9.867739E1,7.022476E2,1.1136E4,6.887487E3,1.0234E4,8.304263E-2,7.198038E3,2.7903484E-3,8.814028E-4,8.613847E1,6.6207023E-3,7.364E3,9.862676E1,7.6028335E3,8.765792E1,7.100993E2,2.5041182E-2,7.3577045E2,1.527E3,5.851E3,3.9830105E-3,9.862324E1,7.17164E3,7.072613E3,6.981414E3,7.207836E2,7.38E2,7.806442E2,3.0814263E-3,5.3025293E-4,7.0375737E3,4.524735E-4,6.8759043E3,9.795113E1,9.731E3,1.0903974E-3,3.2796033E-3,8.729042E1,7.3565125E-1,-1.0630399E-1,5.844566E-1,1.5635936E-1,1.7838483E-1,7.9023504E-1,-4.0013823E-1,7.5391454E-1,2.256166E-1,4.5820245E-1,4.7067162E-1,-1.7778368E-1,4.9384305E-1,2.5421634E-1,-5.082733E-1,8.0351096E-1,4.271024E-1,-2.4948768E-1,3.1959766E-1,7.621344E-2,-4.0692344E-2,2.4979702E-1,4.2704564E-1,6.310492E-2,6.851628E-1,2.7024782E-1,-4.334495E-1,7.999806E-1,-4.1709106E-2,6.994958E-1,4.603048E-1,1.1842634E-1,7.581399E-2,2.2747178E-1,6.5928626E-1,2.3965226E-1,-9.048297E-2,2.0968445E-1,-1.1020906E-1,4.6113722E-2,-2.2743426E-1,-2.5217472E-2,6.002332E-1,-7.321254E-1,2.4255894E-1,-7.322249E-1,-8.8576907E-1,9.011151E-1,7.5788125E-2,-7.274057E-2,-5.0283635E-1,-1.2664847E-1,-2.3079796E-1,-5.572275E-1,-7.2943926E-2,-7.05478E-1,-8.190837E-1,5.56797E-1,1.0162586E-1,3.4662506E-1,-1.9028871E-1,6.478216E-1,-3.454351E-1,1.9445615E-1],"split_indices":[0,0,1,0,3,0,5,1,5,1,7,0,5,1,0,0,9,11,1,10,7,10,7,7,10,4,11,0,5,1,6,2,3,6,7,3,1,4,5,4,11,6,10,0,1,3,4,5,5,2,8,1,8,3,3,5,6,5,4,0,3,3,4,0,0,0,0,0,0,0,0,0,0,0,0,0,0,0,0,0,0,0,0,0,0,0,0,0,0,0,0,0,0,0,0,0,0,0,0,0,0,0,0,0,0,0,0,0,0,0,0,0,0,0,0,0,0,0,0,0,0,0,0,0,0,0,0],"split_type":[0,0,0,0,0,0,0,0,0,0,0,0,0,0,0,0,0,0,0,0,0,0,0,0,0,0,0,0,0,0,0,0,0,0,0,0,0,0,0,0,0,0,0,0,0,0,0,0,0,0,0,0,0,0,0,0,0,0,0,0,0,0,0,0,0,0,0,0,0,0,0,0,0,0,0,0,0,0,0,0,0,0,0,0,0,0,0,0,0,0,0,0,0,0,0,0,0,0,0,0,0,0,0,0,0,0,0,0,0,0,0,0,0,0,0,0,0,0,0,0,0,0,0,0,0,0,0],"sum_hessian":[1.30107E5,2.8984E4,1.01123E5,1.0671E4,1.8313E4,3.928E4,6.1843E4,1.016E3,9.655E3,1.3628E4,4.685E3,1.8288E4,2.0992E4,5.7615E4,4.228E3,8.71E2,1.45E2,7.039E3,2.616E3,4.491E3,9.137E3,1.618E3,3.067E3,6.351E3,1.1937E4,2.037E4,6.22E2,5.2985E4,4.63E3,1.944E3,2.284E3,4.3E2,4.41E2,6E1,8.5E1,6.419E3,6.2E2,2.503E3,1.13E2,4.31E2,4.06E3,6.237E3,2.9E3,1.347E3,2.71E2,1.696E3,1.371E3,5.529E3,8.22E2,4.176E3,7.761E3,2.0216E4,1.54E2,4.51E2,1.71E2,1.6824E4,3.6161E4,3.26E3,1.37E3,3.8E1,1.906E3,8.95E2,1.389E3,4.19E2,1.1E1,3.15E2,1.26E2,9E0,5.1E1,6.9E1,1.6E1,5.63E3,7.89E2,1.01E2,5.19E2,1.59E3,9.13E2,7.7E1,3.6E1,6.2E1,3.69E2,2.429E3,1.631E3,5.555E3,6.82E2,6.9E2,2.21E3,2.19E2,1.128E3,6E0,2.65E2,1.6E3,9.6E1,8.9E2,4.81E2,3.995E3,1.534E3,1.56E2,6.66E2,1.235E3,2.941E3,2.237E3,5.524E3,1.431E3,1.8785E4,2E0,1.52E2,4.21E2,3E1,4E0,1.67E2,5.465E3,1.1359E4,9.6E2,3.5201E4,1.883E3,1.377E3,1.163E3,2.07E2,3.2E1,6E0,5.85E2,1.321E3,8.41E2,5.4E1,1.44E2,1.245E3],"tree_param":{"num_deleted":"0","num_feature":"12","num_nodes":"127","size_leaf_vector":"1"}},{"base_weights":[3.8045933E-4,1.7033207E0,-4.8773044E-1,2.5512207E0,1.0870562E0,-1.6265145E-1,-1.3756819E0,2.7434506E0,8.159585E-2,8.7514025E-1,2.8732069E0,6.287084E-1,-5.4516625E-1,-3.7549224E0,-1.1457219E0,5.087549E0,2.5276809E0,1.590838E0,-2.1528203E0,1.2604754E0,-2.4313015E-1,2.2802215E0,5.6998124E0,-1.4466928E0,7.9051673E-1,-6.0108626E-1,3.1810703E0,8.214133E-1,-4.754664E0,-1.3100255E0,1.5184872E0,6.7264147E0,4.3243237E0,2.3052478E0,4.460005E0,-1.6963667E-1,9.396752E0,4.1687436E0,-4.37158E0,-8.225115E-1,1.4364141E0,-4.460215E0,-2.0870757E-3,3.481409E0,9.120888E-1,4.2208066E0,9.530371E0,-7.8437775E-1,-4.924003E0,1.8834674E0,4.934615E-1,-1.6889193E0,-4.350883E-1,-6.1387463E0,3.6398947E0,3.1613204E0,-9.6565294E-1,-2.3934221E0,-5.1064076E0,-1.0711893E0,-2.8906844E0,1.4760348E-1,2.9161568E0,3.5158885E-1,7.4620056E-1,3.3127978E-1,6.518718E-1,4.1407377E-1,2.0838001E-1,1.9110551E-1,5.005278E-1,-1.3513872E-1,3.2912114E-1,6.024154E-1,9.7151643E-1,5.896229E-1,-3.356678E-1,3.3496952E-1,-5.4891205E-1,3.615721E-1,-2.1527536E-1,2.9306972E-1,1.1146678E-1,-1.9444755E-1,-6.217667E-1,-1.3722388E-1,6.434074E-2,-4.7142148E-2,4.495711E-1,2.6899728E-1,-1.7324366E-1,5.977723E-1,1.0232657E-2,7.791242E-1,1.0484217E0,1.8512233E-1,-1.7238949E-1,4.085264E-2,-5.592217E-1,7.0779705E-3,2.328124E-1,3.910461E-2,4.216551E-1,-2.1556513E-1,1.3068932E-1,5.465926E-2,-7.844757E-2,7.14302E-1,-7.160157E-1,6.839029E-1,2.5361156E-1,-7.202474E-1,4.179104E-1,2.7786538E-1,-2.2017239E-1,-5.885577E-1,1.5386755E-2,-3.5911468E-1,-5.8783174E-1,-4.1114863E-2,-2.0151201E-1,-3.218468E-1,1.24641396E-1,-6.5739274E-1,6.759322E-2,-2.884827E-1,3.3404887E-1],"categories":[],"categories_nodes":[],"categories_segments":[],"categories_sizes":[],"default_left":[0,0,0,0,0,0,0,0,0,0,0,0,0,0,0,0,0,0,0,0,0,0,0,0,0,0,0,0,0,0,0,0,0,0,0,0,0,0,0,0,0,0,0,0,0,0,0,0,0,0,0,0,0,0,0,0,0,0,0,0,0,0,0,0,0,0,0,0,0,0,0,0,0,0,0,0,0,0,0,0,0,0,0,0,0,0,0,0,0,0,0,0,0,0,0,0,0,0,0,0,0,0,0,0,0,0,0,0,0,0,0,0,0,0,0,0,0,0,0,0,0,0,0,0,0,0,0],"id":6,"left_children":[1,3,5,7,9,11,13,15,17,19,21,23,25,27,29,31,33,35,37,39,41,43,45,47,49,51,53,55,57,59,61,63,65,67,69,71,73,75,77,79,81,83,85,87,89,91,93,95,97,99,101,103,105,107,109,111,113,115,117,119,121,123,125,-1,-1,-1,-1,-1,-1,-1,-1,-1,-1,-1,-1,-1,-1,-1,-1,-1,-1,-1,-1,-1,-1,-1,-1,-1,-1,-1,-1,-1,-1,-1,-1,-1,-1,-1,-1,-1,-1,-1,-1,-1,-1,-1,-1,-1,-1,-1,-1,-1,-1,-1,-1,-1,-1,-1,-1,-1,-1,-1,-1,-1,-1,-1,-1],"loss_changes":[1.0814969E5,1.5142773E4,2.9189656E4,5.791086E3,6.3515977E3,2.240822E4,1.482293E4,5.711625E3,2.9777712E3,6.4673867E3,2.9705273E3,8.1017256E3,1.040046E4,1.0929367E4,1.0819832E4,1.1629492E3,4.4451562E3,7.243688E3,5.0114917E3,4.0918105E3,3.9104624E3,2.4175293E3,1.7047227E3,4.0150037E3,7.264462E3,8.877744E3,3.1781514E3,1.7969458E3,1.6156562E3,8.784777E3,2.7510073E3,6.846162E2,1.4278594E3,3.7706797E3,1.476209E3,1.7671769E3,4.563965E1,1.2287964E3,2.2964E3,5.1441973E3,4.9454043E3,9.075386E2,3.2201912E3,3.145461E3,3.2488047E3,1.6202126E3,5.931787E1,3.6357656E3,9.964365E2,3.8542383E3,6.708116E3,9.103973E3,1.4631909E4,5.2595984E2,2.4685762E3,1.9920463E3,1.1354055E3,2.2781616E3,1.9731367E3,1.2599387E4,4.1468223E3,2.5825984E3,1.7597925E3,0E0,0E0,0E0,0E0,0E0,0E0,0E0,0E0,0E0,0E0,0E0,0E0,0E0,0E0,0E0,0E0,0E0,0E0,0E0,0E0,0E0,0E0,0E0,0E0,0E0,0E0,0E0,0E0,0E0,0E0,0E0,0E0,0E0,0E0,0E0,0E0,0E0,0E0,0E0,0E0,0E0,0E0,0E0,0E0,0E0,0E0,0E0,0E0,0E0,0E0,0E0,0E0,0E0,0E0,0E0,0E0,0E0,0E0,0E0,0E0,0E0,0E0,0E0,0E0],"parents":[2147483647,0,0,1,1,2,2,3,3,4,4,5,5,6,6,7,7,8,8,9,9,10,10,11,11,12,12,13,13,14,14,15,15,16,16,17,17,18,18,19,19,20,20,21,21,22,22,23,23,24,24,25,25,26,26,27,27,28,28,29,29,30,30,31,31,32,32,33,33,34,34,35,35,36,36,37,37,38,38,39,39,40,40,41,41,42,42,43,43,44,44,45,45,46,46,47,47,48,48,49,49,50,50,51,51,52,52,53,53,54,54,55,55,56,56,57,57,58,58,59,59,60,60,61,61,62,62],"right_children":[2,4,6,8,10,12,14,16,18,20,22,24,26,28,30,32,34,36,38,40,42,44,46,48,50,52,54,56,58,60,62,64,66,68,70,72,74,76,78,80,82,84,86,88,90,92,94,96,98,100,102,104,106,108,110,112,114,116,118,120,122,124,126,-1,-1,-1,-1,-1,-1,-1,-1,-1,-1,-1,-1,-1,-1,-1,-1,-1,-1,-1,-1,-1,-1,-1,-1,-1,-1,-1,-1,-1,-1,-1,-1,-1,-1,-1,-1,-1,-1,-1,-1,-1,-1,-1,-1,-1,-1,-1,-1,-1,-1,-1,-1,-1,-1,-1,-1,-1,-1,-1,-1,-1,-1,-1,-1],"split_conditions":[4.071E3,1.39E3,1.4215E4,1.5002E4,1.7648881E-2,1.212E4,9.475263E-4,2.25E2,4.496105E-3,1.4662E4,2.6754646E-3,5.27353E2,1.01436676E2,4.9310144E2,7.24674E3,1.1862486E-3,9.2402106E2,2.9270889E-3,7.401103E1,6.9100273E3,7.0811424E1,7.111382E2,6.8732117E2,8.7837814E1,7.0447833E2,5.1358E2,4.250507E2,9.725714E1,8.11045E1,1.5068E4,6.921019E2,7.4051254E1,9.809567E1,4.947E3,5.4734644E2,6.137394E2,3.0866563E-3,6.6207023E-3,4.38E2,8.765792E1,6.8800116E2,7.0314604E3,9.7674675E1,6.884404E3,9.760931E1,7.062075E3,7.3993623E3,4.3429712E2,6.4207084E-4,5.915016E2,8.304263E-2,3.7335644E-3,6.8800116E2,1.541E4,7.068624E3,5.167794E1,7.1731745E-4,7.391996E1,5.746303E-4,9.789243E1,9.8894005E1,9.3761215E-4,4.332E3,3.5158885E-1,7.4620056E-1,3.3127978E-1,6.518718E-1,4.1407377E-1,2.0838001E-1,1.9110551E-1,5.005278E-1,-1.3513872E-1,3.2912114E-1,6.024154E-1,9.7151643E-1,5.896229E-1,-3.356678E-1,3.3496952E-1,-5.4891205E-1,3.615721E-1,-2.1527536E-1,2.9306972E-1,1.1146678E-1,-1.9444755E-1,-6.217667E-1,-1.3722388E-1,6.434074E-2,-4.7142148E-2,4.495711E-1,2.6899728E-1,-1.7324366E-1,5.977723E-1,1.0232657E-2,7.791242E-1,1.0484217E0,1.8512233E-1,-1.7238949E-1,4.085264E-2,-5.592217E-1,7.0779705E-3,2.328124E-1,3.910461E-2,4.216551E-1,-2.1556513E-1,1.3068932E-1,5.465926E-2,-7.844757E-2,7.14302E-1,-7.160157E-1,6.839029E-1,2.5361156E-1,-7.202474E-1,4.179104E-1,2.7786538E-1,-2.2017239E-1,-5.885577E-1,1.5386755E-2,-3.5911468E-1,-5.8783174E-1,-4.1114863E-2,-2.0151201E-1,-3.218468E-1,1.24641396E-1,-6.5739274E-1,6.759322E-2,-2.884827E-1,3.3404887E-1],"split_indices":[0,0,1,1,6,0,6,0,6,1,3,10,7,9,5,3,10,6,7,5,7,9,11,4,10,10,11,7,7,1,9,7,7,1,11,11,6,3,0,4,10,5,4,2,7,2,5,11,3,9,6,6,10,0,5,7,3,7,3,4,7,3,0,0,0,0,0,0,0,0,0,0,0,0,0,0,0,0,0,0,0,0,0,0,0,0,0,0,0,0,0,0,0,0,0,0,0,0,0,0,0,0,0,0,0,0,0,0,0,0,0,0,0,0,0,0,0,0,0,0,0,0,0,0,0,0,0],"split_type":[0,0,0,0,0,0,0,0,0,0,0,0,0,0,0,0,0,0,0,0,0,0,0,0,0,0,0,0,0,0,0,0,0,0,0,0,0,0,0,0,0,0,0,0,0,0,0,0,0,0,0,0,0,0,0,0,0,0,0,0,0,0,0,0,0,0,0,0,0,0,0,0,0,0,0,0,0,0,0,0,0,0,0,0,0,0,0,0,0,0,0,0,0,0,0,0,0,0,0,0,0,0,0,0,0,0,0,0,0,0,0,0,0,0,0,0,0,0,0,0,0,0,0,0,0,0,0],"sum_hessian":[1.30107E5,2.8984E4,1.01123E5,1.2198E4,1.6786E4,7.4024E4,2.7099E4,1.1317E4,8.81E2,1.5007E4,1.779E3,2.4121E4,4.9903E4,2.387E3,2.4712E4,9.52E2,1.0365E4,5.26E2,3.55E2,1.1161E4,3.846E3,1.472E3,3.07E2,1.744E3,2.2377E4,4.9166E4,7.37E2,4.28E2,1.959E3,2.3277E4,1.435E3,3E2,6.52E2,9.297E3,1.068E3,4.3E2,9.6E1,9.2E1,2.63E2,8.69E2,1.0292E4,2.07E2,3.639E3,7.83E2,6.89E2,2.23E2,8.4E1,1.466E3,2.78E2,4.781E3,1.7596E4,6.508E3,4.2658E4,3.4E1,7.03E2,1.85E2,2.43E2,2.55E2,1.704E3,2.0223E4,3.054E3,7.25E2,7.1E2,5.7E1,2.43E2,4.48E2,2.04E2,9.99E2,8.298E3,1.89E2,8.79E2,3.21E2,1.09E2,1E1,8.6E1,7.5E1,1.7E1,3.3E1,2.3E2,2E2,6.69E2,1.822E3,8.47E3,8.6E1,1.21E2,1.165E3,2.474E3,1.6E2,6.23E2,4.12E2,2.77E2,1.56E2,6.7E1,3.3E1,5.1E1,3.85E2,1.081E3,3.1E1,2.47E2,9.42E2,3.839E3,1.7126E4,4.7E2,5.631E3,8.77E2,1.1197E4,3.1461E4,2E0,3.2E1,1.79E2,5.24E2,1.6E1,1.69E2,6E1,1.83E2,1.07E2,1.48E2,5.77E2,1.127E3,1.1902E4,8.321E3,2.83E3,2.24E2,5.2E1,6.73E2,4.8E1,6.62E2],"tree_param":{"num_deleted":"0","num_feature":"12","num_nodes":"127","size_leaf_vector":"1"}},{"base_weights":[3.8896868E-4,1.08609E0,-6.4056623E-1,2.2641263E0,6.654338E-1,-1.2987195E-2,-1.0555452E0,1.8410313E0,3.2862716E0,1.2691168E0,4.416097E-2,-6.886034E-1,2.6942718E-1,-1.1673099E0,1.585311E0,1.9985188E0,-1.2834523E0,6.0427947E0,3.0232031E0,-1.2480478E0,1.4511672E0,7.185929E-1,-3.9637542E-1,-3.433256E-1,-1.6200294E0,-4.111679E-1,8.6420393E-1,-1.0377227E0,-2.972519E0,-6.1100477E-1,2.3939493E0,1.4172351E0,2.8736892E0,1.6183187E0,-4.1927156E0,1.3206513E0,6.882446E0,1.2664161E0,3.5989177E0,2.3314462E0,-2.2172036E0,1.384775E0,6.72574E0,-7.111466E-1,1.7358252E0,-2.5630664E-2,-2.2469447E0,-1.8343188E0,1.653446E-1,-1.7632836E0,6.54007E0,7.907899E-1,-9.8018134E-1,7.6859987E-1,5.904369E0,-6.293635E-1,-1.6750122E0,-3.271482E0,4.0755147E-1,2.2749243E0,-1.6889197E0,-2.348086E0,3.1127043E0,1.2792605E-1,6.3406914E-1,-2.0195822E-1,3.1738737E-1,-1.0312437E-1,8.258858E-1,-6.114322E-1,1.147424E-1,2.7450758E-1,-7.8215384E-1,7.683489E-1,3.4766525E-1,2.6167426E-1,-1.4727934E-1,6.9711703E-1,3.2849222E-1,3.535954E-1,-1.4126079E-1,-1.6338157E-2,-3.624633E-1,1.04097985E-1,2.2008942E-1,7.6643735E-1,6.354507E-2,-1.0350926E-1,2.4918783E-1,2.908848E-1,9.542217E-2,-3.4010645E-2,2.4799953E-1,-3.0211374E-1,-5.8476042E-2,1.3180476E-1,-2.7301046E-1,2.0805143E-1,-3.9033182E-2,9.628378E-2,-2.0376042E-1,9.695371E-1,-9.265116E-1,-5.5363667E-1,9.487805E-2,8.647106E-1,-1.0507363E-1,2.4188931E-1,5.5311013E-2,3.1872365E-1,8.15755E-1,-2.994581E-2,-1.7907533E-1,-3.0131975E-1,-7.617601E-2,5.79064E-3,-3.5082653E-1,-9.999267E-2,3.1854674E-1,6.7393464E-1,4.2282143E-3,2.4611183E-2,-3.5012454E-1,-3.974421E-1,3.972005E-1,6.890192E-1,2.522647E-1],"categories":[],"categories_nodes":[],"categories_segments":[],"categories_sizes":[],"default_left":[0,0,0,0,0,0,0,0,0,0,0,0,0,0,0,0,0,0,0,0,0,0,0,0,0,0,0,0,0,0,0,0,0,0,0,0,0,0,0,0,0,0,0,0,0,0,0,0,0,0,0,0,0,0,0,0,0,0,0,0,0,0,0,0,0,0,0,0,0,0,0,0,0,0,0,0,0,0,0,0,0,0,0,0,0,0,0,0,0,0,0,0,0,0,0,0,0,0,0,0,0,0,0,0,0,0,0,0,0,0,0,0,0,0,0,0,0,0,0,0,0,0,0,0,0,0,0],"id":7,"left_children":[1,3,5,7,9,11,13,15,17,19,21,23,25,27,29,31,33,35,37,39,41,43,45,47,49,51,53,55,57,59,61,63,65,67,69,71,73,75,77,79,81,83,85,87,89,91,93,95,97,99,101,103,105,107,109,111,113,115,117,119,121,123,125,-1,-1,-1,-1,-1,-1,-1,-1,-1,-1,-1,-1,-1,-1,-1,-1,-1,-1,-1,-1,-1,-1,-1,-1,-1,-1,-1,-1,-1,-1,-1,-1,-1,-1,-1,-1,-1,-1,-1,-1,-1,-1,-1,-1,-1,-1,-1,-1,-1,-1,-1,-1,-1,-1,-1,-1,-1,-1,-1,-1,-1,-1,-1,-1],"loss_changes":[9.054098E4,2.3932477E4,2.13062E4,5.489707E3,1.3348413E4,6.2137085E3,1.4537324E4,4.426248E3,2.6785781E3,8.273699E3,5.211923E3,3.086811E3,9.297041E3,1.104973E4,3.5535112E3,4.350082E3,3.6537358E3,1.2715898E3,3.4311934E3,4.230518E3,5.885793E3,1.0081523E4,7.2800312E3,5.3130615E3,3.0461729E3,7.32635E3,5.9011426E3,1.1471766E4,3.1986055E3,1.6805558E3,4.990335E3,3.4869492E3,5.0226484E3,3.826528E3,2.223531E3,6.725887E2,7.2081055E2,3.1108682E3,2.6856953E3,1.1775278E3,2.7715015E3,4.6625957E3,1.1898887E3,2.9929626E3,3.710421E3,6.9671855E3,2.277246E3,5.0356895E3,5.560269E3,1.9104258E3,2.3339836E3,3.445983E3,4.947259E3,4.2764297E3,1.3698604E3,1.0294671E4,2.1037387E4,2.29192E3,1.01192804E3,1.4649313E3,1.3790762E3,1.9995532E3,2.8133652E3,0E0,0E0,0E0,0E0,0E0,0E0,0E0,0E0,0E0,0E0,0E0,0E0,0E0,0E0,0E0,0E0,0E0,0E0,0E0,0E0,0E0,0E0,0E0,0E0,0E0,0E0,0E0,0E0,0E0,0E0,0E0,0E0,0E0,0E0,0E0,0E0,0E0,0E0,0E0,0E0,0E0,0E0,0E0,0E0,0E0,0E0,0E0,0E0,0E0,0E0,0E0,0E0,0E0,0E0,0E0,0E0,0E0,0E0,0E0,0E0,0E0,0E0,0E0,0E0],"parents":[2147483647,0,0,1,1,2,2,3,3,4,4,5,5,6,6,7,7,8,8,9,9,10,10,11,11,12,12,13,13,14,14,15,15,16,16,17,17,18,18,19,19,20,20,21,21,22,22,23,23,24,24,25,25,26,26,27,27,28,28,29,29,30,30,31,31,32,32,33,33,34,34,35,35,36,36,37,37,38,38,39,39,40,40,41,41,42,42,43,43,44,44,45,45,46,46,47,47,48,48,49,49,50,50,51,51,52,52,53,53,54,54,55,55,56,56,57,57,58,58,59,59,60,60,61,61,62,62],"right_children":[2,4,6,8,10,12,14,16,18,20,22,24,26,28,30,32,34,36,38,40,42,44,46,48,50,52,54,56,58,60,62,64,66,68,70,72,74,76,78,80,82,84,86,88,90,92,94,96,98,100,102,104,106,108,110,112,114,116,118,120,122,124,126,-1,-1,-1,-1,-1,-1,-1,-1,-1,-1,-1,-1,-1,-1,-1,-1,-1,-1,-1,-1,-1,-1,-1,-1,-1,-1,-1,-1,-1,-1,-1,-1,-1,-1,-1,-1,-1,-1,-1,-1,-1,-1,-1,-1,-1,-1,-1,-1,-1,-1,-1,-1,-1,-1,-1,-1,-1,-1,-1,-1,-1,-1,-1,-1],"split_conditions":[8.065E3,1.455E3,1.0173E4,9.8580215E1,1.3018E4,8.84491E-4,7.353035E3,9.838689E1,6.3260065E2,5.193661E2,6.266082E2,8.098588E2,4.110831E-3,1.5068E4,6.8685293E3,2.1573524E-3,7.096152E3,8.7692474E1,6.266082E2,8.743916E1,1.01436676E2,6.995366E3,6.558E3,4.8804086E2,8.109369E2,8.1224846E1,1.01436676E2,9.795113E1,9.8894005E1,1.7644E4,7.1731745E-4,7.6028335E3,9.192496E1,7.011652E3,7.1683057E3,6.869791E3,2.893025E-3,1.5264887E-2,1.818E3,1.2308E4,7.788E3,7.17164E3,9.8737E1,9.871801E1,7.0093145E3,7.232828E3,7.45E3,8.6447014E1,7.020022E3,5.803038E2,1.2306E4,6.6978257E3,9.501594E-4,2.083E3,9.815568E1,3.5469E4,7.040418E2,7.277466E-4,4.837519E2,8.736125E1,3.9458804E2,3.2708E4,8.780875E1,1.2792605E-1,6.3406914E-1,-2.0195822E-1,3.1738737E-1,-1.0312437E-1,8.258858E-1,-6.114322E-1,1.147424E-1,2.7450758E-1,-7.8215384E-1,7.683489E-1,3.4766525E-1,2.6167426E-1,-1.4727934E-1,6.9711703E-1,3.2849222E-1,3.535954E-1,-1.4126079E-1,-1.6338157E-2,-3.624633E-1,1.04097985E-1,2.2008942E-1,7.6643735E-1,6.354507E-2,-1.0350926E-1,2.4918783E-1,2.908848E-1,9.542217E-2,-3.4010645E-2,2.4799953E-1,-3.0211374E-1,-5.8476042E-2,1.3180476E-1,-2.7301046E-1,2.0805143E-1,-3.9033182E-2,9.628378E-2,-2.0376042E-1,9.695371E-1,-9.265116E-1,-5.5363667E-1,9.487805E-2,8.647106E-1,-1.0507363E-1,2.4188931E-1,5.5311013E-2,3.1872365E-1,8.15755E-1,-2.994581E-2,-1.7907533E-1,-3.0131975E-1,-7.617601E-2,5.79064E-3,-3.5082653E-1,-9.999267E-2,3.1854674E-1,6.7393464E-1,4.2282143E-3,2.4611183E-2,-3.5012454E-1,-3.974421E-1,3.972005E-1,6.890192E-1,2.522647E-1],"split_indices":[0,0,1,7,1,3,5,7,8,10,11,10,6,1,2,3,5,4,11,4,7,2,0,11,11,7,7,4,7,0,3,5,4,5,5,2,3,6,1,1,1,5,4,7,5,5,0,7,5,11,0,5,3,1,4,0,8,6,11,4,11,0,4,0,0,0,0,0,0,0,0,0,0,0,0,0,0,0,0,0,0,0,0,0,0,0,0,0,0,0,0,0,0,0,0,0,0,0,0,0,0,0,0,0,0,0,0,0,0,0,0,0,0,0,0,0,0,0,0,0,0,0,0,0,0,0,0],"split_type":[0,0,0,0,0,0,0,0,0,0,0,0,0,0,0,0,0,0,0,0,0,0,0,0,0,0,0,0,0,0,0,0,0,0,0,0,0,0,0,0,0,0,0,0,0,0,0,0,0,0,0,0,0,0,0,0,0,0,0,0,0,0,0,0,0,0,0,0,0,0,0,0,0,0,0,0,0,0,0,0,0,0,0,0,0,0,0,0,0,0,0,0,0,0,0,0,0,0,0,0,0,0,0,0,0,0,0,0,0,0,0,0,0,0,0,0,0,0,0,0,0,0,0,0,0,0,0],"sum_hessian":[1.30107E5,4.8297E4,8.181E4,1.2707E4,3.559E4,3.2564E4,4.9246E4,8.989E3,3.718E3,1.805E4,1.754E4,9.599E3,2.2965E4,4.7247E4,1.999E3,8.558E3,4.31E2,3.22E2,3.396E3,1.217E3,1.6833E4,6.93E3,1.061E4,7.004E3,2.595E3,1.071E4,1.2255E4,4.4084E4,3.163E3,5.38E2,1.461E3,5.144E3,3.414E3,2.16E2,2.15E2,4.9E1,2.73E2,8.39E2,2.557E3,2.59E2,9.58E2,1.6625E4,2.08E2,2.881E3,4.049E3,8.84E3,1.77E3,1.781E3,5.223E3,2.551E3,4.4E1,3.441E3,7.269E3,1.2028E4,2.27E2,2.6869E4,1.7215E4,2.906E3,2.57E2,1.46E2,3.92E2,1.92E2,1.269E3,5.005E3,1.39E2,1.97E2,3.217E3,1.55E2,6.1E1,1.58E2,5.7E1,4.3E1,6E0,2.2E2,5.3E1,5.62E2,2.77E2,2.16E2,2.341E3,1.96E2,6.3E1,3.9E2,5.68E2,1.1699E4,4.926E3,1.8E2,2.8E1,2.617E3,2.64E2,1.618E3,2.431E3,7.855E3,9.85E2,1.207E3,5.63E2,3.94E2,1.387E3,1.174E3,4.049E3,2.33E2,2.318E3,3.7E1,7E0,8.3E1,3.358E3,5.2E1,7.217E3,1.388E3,1.064E4,1.04E2,1.23E2,2.0926E4,5.943E3,6.982E3,1.0233E4,1.93E2,2.713E3,1.71E2,8.6E1,4.8E1,9.8E1,1.9E2,2.02E2,1.53E2,3.9E1,1.7E2,1.099E3],"tree_param":{"num_deleted":"0","num_feature":"12","num_nodes":"127","size_leaf_vector":"1"}},{"base_weights":[3.9999594E-4,9.7756857E-1,-5.7648194E-1,1.8747011E0,5.22153E-1,1.6088003E-2,-9.3335885E-1,3.4275346E0,1.6517221E0,1.1070217E0,-9.640423E-2,-6.155682E-2,2.481356E0,-1.4687678E0,-4.8762837E-1,2.690681E0,4.948166E0,1.4764373E0,3.3581767E0,6.962202E-1,2.188712E0,-2.4432957E-1,1.9371E0,-8.277327E-2,7.27339E0,1.7984718E0,8.674061E0,-4.2037106E0,-1.3544747E0,5.7027304E-1,-8.238624E-1,5.7343073E0,2.1956837E0,5.411596E0,2.3962831E0,1.0988395E0,2.4845927E0,2.0584118E0,5.2006974E0,1.0935612E0,-7.6673484E-1,2.8972049E0,9.133855E-1,6.3269526E-1,-6.221367E-1,4.0867786E0,1.5906318E-1,8.097264E-2,-1.0358163E0,2.2579103E0,8.301196E0,2.7770963E0,-2.9585726E0,3.3786106E0,1.0267319E1,1.366442E0,-4.868947E0,-1.0887705E0,-2.412706E0,1.014489E0,-2.6365993E0,-1.032501E0,1.6082501E0,-6.8704283E-1,5.9031487E-1,-1.7309903E-1,2.622997E-1,5.6666934E-1,-1.4300407E-1,8.5832673E-1,9.123305E-2,1.4613296E-1,-7.807936E-5,4.0785572E-1,2.0283487E-1,4.031415E-1,1.1531359E-2,-9.1497165E-1,5.457767E-1,-6.510683E-2,1.4695439E-1,-1.0676306E-1,3.9873138E-1,1.8134789E-1,4.171536E-1,1.8919845E-1,-1.5964161E-1,-3.0004382E-3,4.8879752E-1,-8.953064E-2,8.910822E-2,5.5804975E-2,5.698825E-1,-1.7293131E-2,8.192188E-1,4.9884554E-2,-4.4804666E-2,-2.1683335E-1,-5.345887E-2,5.291173E-1,-6.892023E-2,-5.427556E-1,8.574858E-1,-2.9043658E-2,4.7487363E-1,1.4229368E-1,-5.731465E-1,7.7571505E-1,-5.8007956E-1,3.8437554E-1,1.0695714E0,-5.231173E-1,4.134921E-1,-1.2364512E-1,-5.211903E-1,-6.3668035E-2,-1.7816105E-1,-1.3623983E-1,-3.6168012E-1,8.607596E-2,8.0005854E-1,-2.940135E-1,7.527877E-1,-2.08182E-1,-6.5161906E-2,-3.878936E-2,2.695234E-1],"categories":[],"categories_nodes":[],"categories_segments":[],"categories_sizes":[],"default_left":[0,0,0,0,0,0,0,0,0,0,0,0,0,0,0,0,0,0,0,0,0,0,0,0,0,0,0,0,0,0,0,0,0,0,0,0,0,0,0,0,0,0,0,0,0,0,0,0,0,0,0,0,0,0,0,0,0,0,0,0,0,0,0,0,0,0,0,0,0,0,0,0,0,0,0,0,0,0,0,0,0,0,0,0,0,0,0,0,0,0,0,0,0,0,0,0,0,0,0,0,0,0,0,0,0,0,0,0,0,0,0,0,0,0,0,0,0,0,0,0,0,0,0,0,0,0,0],"id":8,"left_children":[1,3,5,7,9,11,13,15,17,19,21,23,25,27,29,31,33,35,37,39,41,43,45,47,49,51,53,55,57,59,61,63,65,67,69,71,73,75,77,79,81,83,85,87,89,91,93,95,97,99,101,103,105,107,109,111,113,115,117,119,121,123,125,-1,-1,-1,-1,-1,-1,-1,-1,-1,-1,-1,-1,-1,-1,-1,-1,-1,-1,-1,-1,-1,-1,-1,-1,-1,-1,-1,-1,-1,-1,-1,-1,-1,-1,-1,-1,-1,-1,-1,-1,-1,-1,-1,-1,-1,-1,-1,-1,-1,-1,-1,-1,-1,-1,-1,-1,-1,-1,-1,-1,-1,-1,-1,-1],"loss_changes":[7.334386E4,1.9732047E4,1.7300957E4,5.625043E3,1.1590284E4,5.886556E3,1.2184652E4,2.2735898E3,4.2490625E3,7.315752E3,4.6843364E3,4.640302E3,3.955337E3,7.245039E3,9.912119E3,2.0619795E3,7.7347363E2,4.907625E3,3.1600664E3,6.939138E3,4.092287E3,4.810216E3,4.035601E3,4.6395E3,4.2458203E2,3.9513064E3,7.499536E2,3.4527402E3,6.258328E3,9.577035E3,1.0731318E4,4.4917285E2,1.9945532E3,9.889512E2,9.4701306E2,3.7412734E3,2.5472363E3,2.982184E3,2.0678496E3,6.1583633E3,3.6519617E3,4.0153594E3,3.9818848E3,1.2326247E4,4.1948047E3,2.7159111E3,1.5455826E3,5.6088086E3,2.4732217E3,1.4667654E2,3.1328906E2,4.253172E3,1.7698264E3,9.694228E2,1.5426807E2,1.8481663E3,1.0288027E3,5.574293E3,5.645621E3,6.3338247E3,2.545893E3,7.7821523E3,3.6267412E3,0E0,0E0,0E0,0E0,0E0,0E0,0E0,0E0,0E0,0E0,0E0,0E0,0E0,0E0,0E0,0E0,0E0,0E0,0E0,0E0,0E0,0E0,0E0,0E0,0E0,0E0,0E0,0E0,0E0,0E0,0E0,0E0,0E0,0E0,0E0,0E0,0E0,0E0,0E0,0E0,0E0,0E0,0E0,0E0,0E0,0E0,0E0,0E0,0E0,0E0,0E0,0E0,0E0,0E0,0E0,0E0,0E0,0E0,0E0,0E0,0E0,0E0,0E0,0E0],"parents":[2147483647,0,0,1,1,2,2,3,3,4,4,5,5,6,6,7,7,8,8,9,9,10,10,11,11,12,12,13,13,14,14,15,15,16,16,17,17,18,18,19,19,20,20,21,21,22,22,23,23,24,24,25,25,26,26,27,27,28,28,29,29,30,30,31,31,32,32,33,33,34,34,35,35,36,36,37,37,38,38,39,39,40,40,41,41,42,42,43,43,44,44,45,45,46,46,47,47,48,48,49,49,50,50,51,51,52,52,53,53,54,54,55,55,56,56,57,57,58,58,59,59,60,60,61,61,62,62],"right_children":[2,4,6,8,10,12,14,16,18,20,22,24,26,28,30,32,34,36,38,40,42,44,46,48,50,52,54,56,58,60,62,64,66,68,70,72,74,76,78,80,82,84,86,88,90,92,94,96,98,100,102,104,106,108,110,112,114,116,118,120,122,124,126,-1,-1,-1,-1,-1,-1,-1,-1,-1,-1,-1,-1,-1,-1,-1,-1,-1,-1,-1,-1,-1,-1,-1,-1,-1,-1,-1,-1,-1,-1,-1,-1,-1,-1,-1,-1,-1,-1,-1,-1,-1,-1,-1,-1,-1,-1,-1,-1,-1,-1,-1,-1,-1,-1,-1,-1,-1,-1,-1,-1,-1,-1,-1,-1],"split_conditions":[8.065E3,1.935E3,9.748E3,3.38E2,1.3018E4,7.304436E3,3.7335644E-3,9.809567E1,3.6808958E-3,7.17164E3,2.5041182E-2,1.08023544E2,9.2E3,4.0428204E-4,6.8800116E2,6.6796936E1,9.866253E1,9.870543E1,6.101429E2,7.133464E3,9.865249E1,6.8800116E2,4.332E3,3.8784E4,3.787E3,8.156E3,3.4180508E2,1.1416E4,3.775E4,1.4924E4,8.304263E-2,8.724174E1,7.384915E1,9.977632E1,9.8791176E1,9.7129196E1,7.036856E2,6.9816455E3,9.194354E1,6.988434E3,7.88494E2,7.1562236E3,8.0424084E2,9.885104E1,2.703979E-3,5.0292398E2,9.924654E1,6.741687E2,2.553E3,7.502546E2,3.2969106E-3,9.211673E1,4.4763696E2,8.774354E1,7.320844E3,1.2667102E-3,1.0422E4,9.786475E1,9.738513E1,9.982247E1,7.023487E3,7.419168E1,6.8744526E3,-6.8704283E-1,5.9031487E-1,-1.7309903E-1,2.622997E-1,5.6666934E-1,-1.4300407E-1,8.5832673E-1,9.123305E-2,1.4613296E-1,-7.807936E-5,4.0785572E-1,2.0283487E-1,4.031415E-1,1.1531359E-2,-9.1497165E-1,5.457767E-1,-6.510683E-2,1.4695439E-1,-1.0676306E-1,3.9873138E-1,1.8134789E-1,4.171536E-1,1.8919845E-1,-1.5964161E-1,-3.0004382E-3,4.8879752E-1,-8.953064E-2,8.910822E-2,5.5804975E-2,5.698825E-1,-1.7293131E-2,8.192188E-1,4.9884554E-2,-4.4804666E-2,-2.1683335E-1,-5.345887E-2,5.291173E-1,-6.892023E-2,-5.427556E-1,8.574858E-1,-2.9043658E-2,4.7487363E-1,1.4229368E-1,-5.731465E-1,7.7571505E-1,-5.8007956E-1,3.8437554E-1,1.0695714E0,-5.231173E-1,4.134921E-1,-1.2364512E-1,-5.211903E-1,-6.3668035E-2,-1.7816105E-1,-1.3623983E-1,-3.6168012E-1,8.607596E-2,8.0005854E-1,-2.940135E-1,7.527877E-1,-2.08182E-1,-6.5161906E-2,-3.878936E-2,2.695234E-1],"split_indices":[0,0,1,0,1,5,6,7,3,5,6,7,1,6,10,7,4,7,11,5,4,10,0,0,1,1,11,1,0,1,6,4,7,7,7,7,8,5,4,2,9,2,11,7,3,11,7,11,1,10,6,4,11,4,5,3,0,4,7,7,5,7,2,0,0,0,0,0,0,0,0,0,0,0,0,0,0,0,0,0,0,0,0,0,0,0,0,0,0,0,0,0,0,0,0,0,0,0,0,0,0,0,0,0,0,0,0,0,0,0,0,0,0,0,0,0,0,0,0,0,0,0,0,0,0,0,0],"split_type":[0,0,0,0,0,0,0,0,0,0,0,0,0,0,0,0,0,0,0,0,0,0,0,0,0,0,0,0,0,0,0,0,0,0,0,0,0,0,0,0,0,0,0,0,0,0,0,0,0,0,0,0,0,0,0,0,0,0,0,0,0,0,0,0,0,0,0,0,0,0,0,0,0,0,0,0,0,0,0,0,0,0,0,0,0,0,0,0,0,0,0,0,0,0,0,0,0,0,0,0,0,0,0,0,0,0,0,0,0,0,0,0,0,0,0,0,0,0,0,0,0,0,0,0,0,0,0],"sum_hessian":[1.30107E5,4.8297E4,8.181E4,1.6261E4,3.2036E4,3.0751E4,5.1059E4,2.04E3,1.4221E4,1.6466E4,1.557E4,2.9813E4,9.38E2,2.3195E4,2.7864E4,1.376E3,6.64E2,1.2898E4,1.323E3,1.1935E4,4.531E3,1.4515E4,1.055E3,2.9728E4,8.5E1,8.46E2,9.2E1,9.29E2,2.2266E4,6.72E3,2.1144E4,1.91E2,1.185E3,5.61E2,1.03E2,9.385E3,3.513E3,7.77E2,5.46E2,9.386E3,2.549E3,2.912E3,1.619E3,4.37E3,1.0145E4,4.77E2,5.78E2,2.537E4,4.358E3,1.5E1,7E1,7.02E2,1.44E2,2.2E1,7E1,9.9E1,8.3E2,1.7799E4,4.467E3,5.903E3,8.17E2,1.9474E4,1.67E3,2E0,1.89E2,1.16E2,1.069E3,5.41E2,2E1,1.9E1,8.4E1,7.058E3,2.327E3,7.8E2,2.733E3,3.85E2,3.92E2,9E0,5.37E2,1.664E3,7.722E3,2.398E3,1.51E2,1.575E3,1.337E3,1.165E3,4.54E2,3.782E3,5.88E2,8.594E3,1.551E3,1.5E2,3.27E2,5.56E2,2.2E1,1.4174E4,1.1196E4,1.336E3,3.022E3,7E0,8E0,1E0,6.9E1,2.75E2,4.27E2,5.6E1,8.8E1,1.5E1,7E0,5E0,6.5E1,2.9E1,7E1,7.2E1,7.58E2,1.0772E4,7.027E3,2.387E3,2.08E3,5.777E3,1.26E2,7.94E2,2.3E1,5.185E3,1.4289E4,5.89E2,1.081E3],"tree_param":{"num_deleted":"0","num_feature":"12","num_nodes":"127","size_leaf_vector":"1"}},{"base_weights":[4.1441218E-4,1.1475524E0,-3.9824554E-1,1.3327678E0,-6.3253015E-1,-8.4955886E-2,-9.2133397E-1,2.9050274E0,1.1204727E0,3.8151118E-1,-1.7274923E0,2.8529626E-1,-6.31999E-1,-4.6565053E-1,-1.5708166E0,2.433658E0,4.988563E0,8.36863E-1,1.9474139E0,-2.1625361E0,9.5141196E-1,-1.8885951E0,1.04577E1,2.5507814E-1,5.5367303E0,-6.8273306E-1,3.1244223E0,-1.5015855E-1,-1.672162E0,-2.8037772E0,-9.241173E-1,1.8564725E0,4.626571E0,5.9076414E0,-5.3000057E-1,1.557922E0,3.6833507E-1,2.5212324E0,1.1916381E0,4.1853623E0,-2.803334E0,5.0005007E0,2.5514174E-1,-9.920901E-1,-4.3899646E0,2.0635934E-1,1.0790886E0,-3.9444697E-1,4.4830963E-1,-2.4001584E0,6.9032464E0,-2.7456018E-1,-1.1476983E0,4.6019135E0,-3.0931118E0,4.5906644E0,-2.630536E-1,-2.3843992E0,2.492156E0,-9.3731683E-1,-3.6564322E0,-1.235468E0,1.6338159E0,2.9659042E-1,4.9850147E-2,3.3535966E-1,7.36521E-1,6.406265E-1,6.980254E-2,-3.284174E-1,6.275998E-1,-6.538972E-3,2.0766728E-1,-5.352769E-2,9.573178E-2,2.0951824E-1,6.177985E-1,-4.902075E-1,1.4447646E-1,7.39824E-1,9.076529E-2,-1.933664E-1,-5.745856E-1,5.4181355E-1,-5.543393E-1,-7.098535E-2,2.1083637E-1,6.3240504E-1,-1.2865521E-1,-8.474172E-1,-3.620977E-1,1.1422449E-1,-7.140245E-2,3.3266407E-2,1.9879386E-1,-5.597407E-1,9.361467E-1,8.057419E-1,5.148545E-2,-2.0718022E-1,-7.0503126E-3,-1.1869327E-1,9.6008676E-1,7.885421E-1,1.8336998E-1,-3.9769587E-1,5.966258E-1,-5.525395E-1,5.092308E-1,-2.4722207E-1,-2.4034188E-3,-1.6174142E-1,-3.4736225E-1,-5.451748E-1,3.5805726E-1,3.5287145E-1,-1.780392E-1,-3.8155943E-1,4.244771E-1,1.355874E0,-1.294925E-1,-3.8014576E-1,2.4160472E-1],"categories":[],"categories_nodes":[],"categories_segments":[],"categories_sizes":[],"default_left":[0,0,0,0,0,0,0,0,0,0,0,0,0,0,0,0,0,0,0,0,0,0,0,0,0,0,0,0,0,0,0,0,0,0,0,0,0,0,0,0,0,0,0,0,0,0,0,0,0,0,0,0,0,0,0,0,0,0,0,0,0,0,0,0,0,0,0,0,0,0,0,0,0,0,0,0,0,0,0,0,0,0,0,0,0,0,0,0,0,0,0,0,0,0,0,0,0,0,0,0,0,0,0,0,0,0,0,0,0,0,0,0,0,0,0,0,0,0,0,0,0,0,0],"id":9,"left_children":[1,3,5,7,9,11,13,15,17,19,21,23,25,27,29,31,33,35,37,39,41,43,45,47,49,51,53,55,57,59,61,63,65,67,69,71,73,75,77,79,81,83,85,87,89,-1,-1,91,93,95,97,99,101,103,105,107,109,111,113,115,117,119,121,-1,-1,-1,-1,-1,-1,-1,-1,-1,-1,-1,-1,-1,-1,-1,-1,-1,-1,-1,-1,-1,-1,-1,-1,-1,-1,-1,-1,-1,-1,-1,-1,-1,-1,-1,-1,-1,-1,-1,-1,-1,-1,-1,-1,-1,-1,-1,-1,-1,-1,-1,-1,-1,-1,-1,-1,-1,-1,-1,-1],"loss_changes":[5.9501184E4,1.1063891E4,1.5823016E4,1.014141E4,3.5126548E3,1.2231401E4,1.0703201E4,3.538207E3,6.2788125E3,2.3841682E3,3.0055776E3,5.7135938E3,4.6474844E3,8.090733E3,1.1887566E4,3.7252773E3,3.3810762E3,6.7365586E3,2.9624863E3,1.2361166E3,3.7849902E3,3.3638647E3,3.3667725E1,4.4945186E3,2.2508218E3,4.5642334E3,2.9997983E3,9.020123E3,1.307406E4,8.1606914E3,7.79334E3,3.5193882E3,2.115838E3,1.4787793E3,1.8201215E3,6.6139414E3,6.4344204E3,6.041285E3,4.5620254E3,2.8814957E2,6.9006177E2,8.9752344E2,2.0527346E3,2.392974E3,1.2130332E3,0E0,0E0,4.0331736E3,4.9133745E3,1.21815E3,1.2935537E3,4.6974253E3,4.7527256E3,2.376066E3,5.2817444E2,2.0174004E3,8.691376E3,3.1380566E3,5.587723E3,6.068254E3,4.4441094E3,7.689586E3,4.524427E3,0E0,0E0,0E0,0E0,0E0,0E0,0E0,0E0,0E0,0E0,0E0,0E0,0E0,0E0,0E0,0E0,0E0,0E0,0E0,0E0,0E0,0E0,0E0,0E0,0E0,0E0,0E0,0E0,0E0,0E0,0E0,0E0,0E0,0E0,0E0,0E0,0E0,0E0,0E0,0E0,0E0,0E0,0E0,0E0,0E0,0E0,0E0,0E0,0E0,0E0,0E0,0E0,0E0,0E0,0E0,0E0,0E0,0E0,0E0,0E0],"parents":[2147483647,0,0,1,1,2,2,3,3,4,4,5,5,6,6,7,7,8,8,9,9,10,10,11,11,12,12,13,13,14,14,15,15,16,16,17,17,18,18,19,19,20,20,21,21,22,22,23,23,24,24,25,25,26,26,27,27,28,28,29,29,30,30,31,31,32,32,33,33,34,34,35,35,36,36,37,37,38,38,39,39,40,40,41,41,42,42,43,43,44,44,47,47,48,48,49,49,50,50,51,51,52,52,53,53,54,54,55,55,56,56,57,57,58,58,59,59,60,60,61,61,62,62],"right_children":[2,4,6,8,10,12,14,16,18,20,22,24,26,28,30,32,34,36,38,40,42,44,46,48,50,52,54,56,58,60,62,64,66,68,70,72,74,76,78,80,82,84,86,88,90,-1,-1,92,94,96,98,100,102,104,106,108,110,112,114,116,118,120,122,-1,-1,-1,-1,-1,-1,-1,-1,-1,-1,-1,-1,-1,-1,-1,-1,-1,-1,-1,-1,-1,-1,-1,-1,-1,-1,-1,-1,-1,-1,-1,-1,-1,-1,-1,-1,-1,-1,-1,-1,-1,-1,-1,-1,-1,-1,-1,-1,-1,-1,-1,-1,-1,-1,-1,-1,-1,-1,-1,-1],"split_conditions":[4.875E3,1.4956E4,1.3226E4,5.36E2,1.935E3,2.364E4,9.789243E1,1.4725E4,7.17164E3,6.8793184E3,7.161883E2,1.0228427E2,1.0228427E2,1.503E4,7.0347943E2,1.2132212E-2,1.2309355E-2,7.062075E3,9.862324E1,2.82E2,6.9331333E3,6.266082E2,2.002E3,7.105869E-4,6.185642E-4,9.449E3,5.276E4,8.7271706E1,5.0292398E2,1.196E4,1.709709E-2,1.293E4,6.847265E2,8.271358E2,9.345613E2,9.765814E1,8.1174774E1,9.860993E1,7.653043E2,6.8572134E3,6.873564E3,9.917915E1,1.5045E4,6.7291385E-4,8.11045E1,2.0635934E-1,1.0790886E0,3.185E3,7.24674E3,1.9226E4,2.6948038E-3,7.38E2,7.73873E2,7.9839386E2,1.2308E4,2.078092E-3,5.108901E2,5.124641E2,6.212498E-4,6.990818E3,9.977632E1,6.9645325E2,1.3519E4,2.9659042E-1,4.9850147E-2,3.3535966E-1,7.36521E-1,6.406265E-1,6.980254E-2,-3.284174E-1,6.275998E-1,-6.538972E-3,2.0766728E-1,-5.352769E-2,9.573178E-2,2.0951824E-1,6.177985E-1,-4.902075E-1,1.4447646E-1,7.39824E-1,9.076529E-2,-1.933664E-1,-5.745856E-1,5.4181355E-1,-5.543393E-1,-7.098535E-2,2.1083637E-1,6.3240504E-1,-1.2865521E-1,-8.474172E-1,-3.620977E-1,1.1422449E-1,-7.140245E-2,3.3266407E-2,1.9879386E-1,-5.597407E-1,9.361467E-1,8.057419E-1,5.148545E-2,-2.0718022E-1,-7.0503126E-3,-1.1869327E-1,9.6008676E-1,7.885421E-1,1.8336998E-1,-3.9769587E-1,5.966258E-1,-5.525395E-1,5.092308E-1,-2.4722207E-1,-2.4034188E-3,-1.6174142E-1,-3.4736225E-1,-5.451748E-1,3.5805726E-1,3.5287145E-1,-1.780392E-1,-3.8155943E-1,4.244771E-1,1.355874E0,-1.294925E-1,-3.8014576E-1,2.4160472E-1],"split_indices":[0,1,1,0,0,0,4,1,5,5,9,7,7,1,8,6,6,2,4,0,2,11,0,3,3,1,0,4,11,0,6,1,11,8,10,4,7,4,9,5,5,7,1,3,7,0,0,1,5,0,3,1,9,10,1,6,10,8,6,5,7,10,1,0,0,0,0,0,0,0,0,0,0,0,0,0,0,0,0,0,0,0,0,0,0,0,0,0,0,0,0,0,0,0,0,0,0,0,0,0,0,0,0,0,0,0,0,0,0,0,0,0,0,0,0,0,0,0,0,0,0,0,0],"split_type":[0,0,0,0,0,0,0,0,0,0,0,0,0,0,0,0,0,0,0,0,0,0,0,0,0,0,0,0,0,0,0,0,0,0,0,0,0,0,0,0,0,0,0,0,0,0,0,0,0,0,0,0,0,0,0,0,0,0,0,0,0,0,0,0,0,0,0,0,0,0,0,0,0,0,0,0,0,0,0,0,0,0,0,0,0,0,0,0,0,0,0,0,0,0,0,0,0,0,0,0,0,0,0,0,0,0,0,0,0,0,0,0,0,0,0,0,0,0,0,0,0,0,0],"sum_hessian":[1.30107E5,3.3554E4,9.6553E4,3.0392E4,3.162E3,6.0387E4,3.6166E4,3.614E3,2.6778E4,1.642E3,1.52E3,3.6013E4,2.4374E4,2.1255E4,1.4911E4,2.949E3,6.65E2,1.9941E4,6.837E3,3E2,1.342E3,1.501E3,1.9E1,3.5808E4,2.05E2,2.405E4,3.24E2,1.685E4,4.405E3,5.129E3,9.782E3,2.336E3,6.13E2,5.7E2,9.5E1,7.853E3,1.2088E4,3.885E3,2.952E3,2.7E1,2.73E2,1.96E2,1.146E3,1.106E3,3.95E2,1E0,1.8E1,8.21E3,2.7598E4,3E1,1.75E2,1.2808E4,1.1242E4,2.62E2,6.2E1,3.91E2,1.6459E4,3.762E3,6.43E2,1.609E3,3.52E3,8.721E3,1.061E3,1.285E3,1.051E3,4.2E2,1.93E2,5.2E2,5E1,6.8E1,2.7E1,1.902E3,5.951E3,4.77E3,7.318E3,3.481E3,4.04E2,1.17E2,2.835E3,1.3E1,1.4E1,2.12E2,6.1E1,1.89E2,7E0,7.54E2,3.92E2,4.2E1,1.064E3,6.1E1,3.34E2,1.413E3,6.797E3,2.5671E4,1.927E3,2.4E1,6E0,1.48E2,2.7E1,1.305E3,1.1503E4,1.1202E4,4E1,1.19E2,1.43E2,5.7E1,5E0,1.8E1,3.73E2,1.606E3,1.4853E4,2.209E3,1.553E3,7.7E1,5.66E2,2.55E2,1.354E3,3.451E3,6.9E1,3.4E1,8.687E3,1.33E2,9.28E2],"tree_param":{"num_deleted":"0","num_feature":"12","num_nodes":"123","size_leaf_vector":"1"}},{"base_weights":[4.308202E-4,8.045269E-1,-4.7427595E-1,1.709079E0,4.988362E-1,-1.0255586E-2,-7.8110373E-1,1.8700061E0,-3.579057E-1,8.6351895E-1,-1.5088214E-1,-5.758457E-1,2.2616675E-1,-8.6821264E-1,1.277147E0,4.6711E0,1.7490234E0,1.0753261E0,-2.4785666E0,-5.8272594E-1,1.0427374E0,9.067595E-1,-4.2283252E-1,5.0932345E0,-6.28227E-1,-3.427499E-1,7.2334695E-1,-7.6424485E-1,-2.3165538E0,-2.2468002E0,1.6526142E0,6.268848E0,3.852134E0,1.5559094E0,3.4056666E0,-4.137703E-1,7.680741E0,3.0599008E0,-4.420229E0,2.0009239E0,-1.2551571E0,2.8479314E0,8.687614E-1,1.2573768E0,-4.0389094E0,-8.830978E-1,2.2744478E-1,7.7611814E0,-9.56314E-1,-5.5798626E-1,-4.756993E0,7.1127737E-1,-8.4173465E-1,5.3587025E-1,2.4809833E0,-2.0735204E0,-6.3776964E-1,-2.6631157E0,4.810116E-3,-3.6980095E0,3.3965259E0,-4.0569508E-1,2.620182E0,4.795002E-1,7.8990954E-1,1.02768876E-1,5.279859E-1,3.1255594E-1,1.3684927E-1,3.633021E-1,-1.5869458E-1,-5.6004333E-1,2.3564015E-2,6.746893E-1,9.075681E-1,4.5553404E-1,-3.4241718E-1,-7.0982856E-1,-1.6471013E-1,1.5260841E-1,7.743946E-1,-1.8343824E-1,1.5592201E-1,2.3754363E-1,8.8291895E-1,8.0643676E-2,5.200345E-1,1.3489701E-1,-8.171875E-1,-6.0783553E-1,1.0513501E0,-1.385219E-1,1.4255243E-2,-1.267832E-1,8.482184E-2,-2.8037095E-2,9.946694E-1,-2.2015957E-2,-1.4388826E-1,-9.6887654E-1,-2.2696944E-1,3.340438E-2,3.0668944E-1,7.818611E-1,-9.052088E-2,2.0738459E-1,3.4423247E-2,1.835125E-1,8.45185E-1,8.179272E-2,-2.525822E-1,2.4826081E-1,-7.568442E-2,1.04970776E-1,-2.8729528E-1,3.879986E-1,-9.6986994E-2,8.18651E-1,-4.2351285E-1,5.246548E-1,-7.961359E-1,1.3416824E-1,-2.4668634E-1,8.1966746E-1,2.3121138E-1],"categories":[],"categories_nodes":[],"categories_segments":[],"categories_sizes":[],"default_left":[0,0,0,0,0,0,0,0,0,0,0,0,0,0,0,0,0,0,0,0,0,0,0,0,0,0,0,0,0,0,0,0,0,0,0,0,0,0,0,0,0,0,0,0,0,0,0,0,0,0,0,0,0,0,0,0,0,0,0,0,0,0,0,0,0,0,0,0,0,0,0,0,0,0,0,0,0,0,0,0,0,0,0,0,0,0,0,0,0,0,0,0,0,0,0,0,0,0,0,0,0,0,0,0,0,0,0,0,0,0,0,0,0,0,0,0,0,0,0,0,0,0,0,0,0],"id":10,"left_children":[1,3,5,7,9,11,13,15,17,19,21,23,25,27,29,31,33,35,37,39,41,43,45,47,49,51,53,55,57,59,61,63,65,67,69,71,73,75,77,79,81,83,85,87,89,91,93,95,-1,97,99,101,103,105,107,109,111,113,115,117,119,121,123,-1,-1,-1,-1,-1,-1,-1,-1,-1,-1,-1,-1,-1,-1,-1,-1,-1,-1,-1,-1,-1,-1,-1,-1,-1,-1,-1,-1,-1,-1,-1,-1,-1,-1,-1,-1,-1,-1,-1,-1,-1,-1,-1,-1,-1,-1,-1,-1,-1,-1,-1,-1,-1,-1,-1,-1,-1,-1,-1,-1,-1,-1],"loss_changes":[4.966389E4,1.3354186E4,1.1647779E4,4.0584648E3,8.553705E3,4.354661E3,8.830699E3,3.8273125E3,2.6834148E3,5.9936855E3,3.7334817E3,2.8539563E3,6.4962744E3,7.112875E3,2.6499668E3,5.8823047E2,3.466168E3,5.1868027E3,3.8418904E3,4.4326943E3,6.4586875E3,4.6089473E3,3.0904739E3,3.5152349E3,2.7561868E3,5.6339805E3,4.0372168E3,7.29875E3,2.5454395E3,1.5931624E3,3.6017925E3,3.3935352E2,1.2527231E3,2.8551387E3,1.2906904E3,1.4530455E3,6.5125E1,9.1737646E2,1.9489287E3,1.4253188E3,3.3023015E3,5.0886406E3,5.061966E3,2.1528909E3,5.2873833E3,3.1138916E3,3.9738926E3,1.3209072E3,0E0,2.7836406E3,1.9284292E3,3.0575977E3,4.0034565E3,3.2637625E3,4.5388184E3,5.0802754E3,1.4939606E4,2.1478438E3,1.5599104E3,1.01771484E3,8.822633E2,2.088659E3,2.0941143E3,0E0,0E0,0E0,0E0,0E0,0E0,0E0,0E0,0E0,0E0,0E0,0E0,0E0,0E0,0E0,0E0,0E0,0E0,0E0,0E0,0E0,0E0,0E0,0E0,0E0,0E0,0E0,0E0,0E0,0E0,0E0,0E0,0E0,0E0,0E0,0E0,0E0,0E0,0E0,0E0,0E0,0E0,0E0,0E0,0E0,0E0,0E0,0E0,0E0,0E0,0E0,0E0,0E0,0E0,0E0,0E0,0E0,0E0,0E0,0E0,0E0,0E0],"parents":[2147483647,0,0,1,1,2,2,3,3,4,4,5,5,6,6,7,7,8,8,9,9,10,10,11,11,12,12,13,13,14,14,15,15,16,16,17,17,18,18,19,19,20,20,21,21,22,22,23,23,24,24,25,25,26,26,27,27,28,28,29,29,30,30,31,31,32,32,33,33,34,34,35,35,36,36,37,37,38,38,39,39,40,40,41,41,42,42,43,43,44,44,45,45,46,46,47,47,49,49,50,50,51,51,52,52,53,53,54,54,55,55,56,56,57,57,58,58,59,59,60,60,61,61,62,62],"right_children":[2,4,6,8,10,12,14,16,18,20,22,24,26,28,30,32,34,36,38,40,42,44,46,48,50,52,54,56,58,60,62,64,66,68,70,72,74,76,78,80,82,84,86,88,90,92,94,96,-1,98,100,102,104,106,108,110,112,114,116,118,120,122,124,-1,-1,-1,-1,-1,-1,-1,-1,-1,-1,-1,-1,-1,-1,-1,-1,-1,-1,-1,-1,-1,-1,-1,-1,-1,-1,-1,-1,-1,-1,-1,-1,-1,-1,-1,-1,-1,-1,-1,-1,-1,-1,-1,-1,-1,-1,-1,-1,-1,-1,-1,-1,-1,-1,-1,-1,-1,-1,-1,-1,-1,-1],"split_conditions":[8.065E3,1.39E3,1.0173E4,1.5002E4,1.4145E4,8.84491E-4,7.353035E3,1.6E2,4.496105E-3,6.9888335E3,2.302E3,1.9932074E-4,4.110831E-3,1.5068E4,7.1731745E-4,1.2162762E-3,9.2402106E2,2.9270889E-3,7.401103E1,8.765792E1,6.998552E3,9.86417E1,1.684143E-3,6.806346E2,8.7262684E-4,8.1224846E1,9.8620766E1,7.08721E1,9.8791176E1,3.2708E4,6.8744526E3,1.4647E4,2.0194494E-3,4.947E3,9.982247E1,8.9881325E-4,6.995863E3,6.6207023E-3,9.404285E-3,4.6408212E2,9.798829E1,6.0663385E2,1.01436676E2,8.1165784E2,8.108156E2,7.121818E3,5.997016E2,2.078092E-3,-9.56314E-1,8.098588E2,6.3238416E2,7.419168E1,9.501594E-4,2.083E3,2.7976225E-3,5.016939E1,6.8610205E3,6.6719216E-4,1.4304E4,6.246061E2,7.155876E3,3.9458804E2,8.774354E1,4.795002E-1,7.8990954E-1,1.02768876E-1,5.279859E-1,3.1255594E-1,1.3684927E-1,3.633021E-1,-1.5869458E-1,-5.6004333E-1,2.3564015E-2,6.746893E-1,9.075681E-1,4.5553404E-1,-3.4241718E-1,-7.0982856E-1,-1.6471013E-1,1.5260841E-1,7.743946E-1,-1.8343824E-1,1.5592201E-1,2.3754363E-1,8.8291895E-1,8.0643676E-2,5.200345E-1,1.3489701E-1,-8.171875E-1,-6.0783553E-1,1.0513501E0,-1.385219E-1,1.4255243E-2,-1.267832E-1,8.482184E-2,-2.8037095E-2,9.946694E-1,-2.2015957E-2,-1.4388826E-1,-9.6887654E-1,-2.2696944E-1,3.340438E-2,3.0668944E-1,7.818611E-1,-9.052088E-2,2.0738459E-1,3.4423247E-2,1.835125E-1,8.45185E-1,8.179272E-2,-2.525822E-1,2.4826081E-1,-7.568442E-2,1.04970776E-1,-2.8729528E-1,3.879986E-1,-9.6986994E-2,8.18651E-1,-4.2351285E-1,5.246548E-1,-7.961359E-1,1.3416824E-1,-2.4668634E-1,8.1966746E-1,2.3121138E-1],"split_indices":[0,0,1,1,1,3,5,0,6,2,0,3,6,1,3,3,10,6,7,4,5,4,3,11,3,7,4,7,7,0,2,1,3,1,7,3,2,3,6,11,7,11,7,9,9,5,9,6,0,10,11,7,3,1,3,7,5,6,0,8,2,11,4,0,0,0,0,0,0,0,0,0,0,0,0,0,0,0,0,0,0,0,0,0,0,0,0,0,0,0,0,0,0,0,0,0,0,0,0,0,0,0,0,0,0,0,0,0,0,0,0,0,0,0,0,0,0,0,0,0,0,0,0,0,0],"split_type":[0,0,0,0,0,0,0,0,0,0,0,0,0,0,0,0,0,0,0,0,0,0,0,0,0,0,0,0,0,0,0,0,0,0,0,0,0,0,0,0,0,0,0,0,0,0,0,0,0,0,0,0,0,0,0,0,0,0,0,0,0,0,0,0,0,0,0,0,0,0,0,0,0,0,0,0,0,0,0,0,0,0,0,0,0,0,0,0,0,0,0,0,0,0,0,0,0,0,0,0,0,0,0,0,0,0,0,0,0,0,0,0,0,0,0,0,0,0,0,0,0,0,0,0,0],"sum_hessian":[1.30107E5,4.8297E4,8.181E4,1.2198E4,3.6099E4,3.2564E4,4.9246E4,1.1317E4,8.81E2,2.3121E4,1.2978E4,9.599E3,2.2965E4,4.7247E4,1.999E3,4.67E2,1.085E4,5.26E2,3.55E2,2.549E3,2.0572E4,2.654E3,1.0324E4,8.7E1,9.512E3,1.071E4,1.2255E4,4.4084E4,3.163E3,1.92E2,1.807E3,1.56E2,3.11E2,9.719E3,1.131E3,4.3E2,9.6E1,9.2E1,2.63E2,5.26E2,2.023E3,1.807E3,1.8765E4,2.479E3,1.75E2,6.045E3,4.279E3,7.4E1,1.3E1,9.354E3,1.58E2,3.441E3,7.269E3,1.1075E4,1.18E3,3.882E3,4.0202E4,2.752E3,4.11E2,1.53E2,3.9E1,5.78E2,1.229E3,8.4E1,7.2E1,1.05E2,2.06E2,1.035E3,8.684E3,1.082E3,4.9E1,4.7E1,3.83E2,6.1E1,3.5E1,7.5E1,1.7E1,1.33E2,1.3E2,4.87E2,3.9E1,1.678E3,3.45E2,1.676E3,1.31E2,1.85E4,2.65E2,2.456E3,2.3E1,1.54E2,2.1E1,4.058E3,1.987E3,1.255E3,3.024E3,1.6E1,5.8E1,6.762E3,2.592E3,5.2E1,1.06E2,2.967E3,4.74E2,5.2E1,7.217E3,1.226E3,9.849E3,1.066E3,1.14E2,5.25E2,3.357E3,1.477E3,3.8725E4,1.47E2,2.605E3,8.2E1,3.29E2,6E0,1.47E2,3.4E1,5E0,3.13E2,2.65E2,6.3E1,1.166E3],"tree_param":{"num_deleted":"0","num_feature":"12","num_nodes":"125","size_leaf_vector":"1"}},{"base_weights":[4.4250657E-4,5.915183E-1,-5.2981323E-1,1.3934771E0,3.0339178E-1,-6.099749E-2,-8.391936E-1,1.2238941E0,2.7318451E0,4.8550755E-1,-7.1834105E-1,-4.9713874E-1,3.6179242E-1,-3.7428756E0,-7.8563696E-1,1.0299233E0,2.7491734E0,8.01931E0,2.411481E0,3.870164E-1,1.7810644E0,-9.4308597E-1,3.025977E0,-6.007667E-2,-1.3140714E0,-6.2327766E-1,7.48532E-1,-4.142949E0,5.9703155E0,-8.47021E-1,8.522947E-1,9.0820765E-1,3.5267391E0,1.8160607E0,4.2168384E0,9.9229294E-1,8.516184E0,-2.1793468E0,3.144146E0,3.656658E-1,6.318459E0,-2.3065658E-1,2.4763546E0,-3.3609045E-1,-1.7976865E0,6.3600135E0,7.998355E-2,-8.872809E-1,8.3038014E-1,-2.59981E0,-2.6933566E-1,1.2355728E0,-1.3538628E0,5.8032554E-1,4.658121E0,-2.5556161E0,-4.7246385E0,8.84637E-1,4.8827033E0,-7.4272984E-1,-2.153651E0,-2.7604742E0,1.2509412E0,1.126646E-1,-1.16249E-1,-9.2221326E-1,3.8498136E-1,3.6911067E-1,1.5693286E-2,6.0866886E-1,2.6635417E-1,1.702041E-1,-7.5796746E-2,7.346358E-1,1.0294327E0,2.912868E-1,-4.2333674E-1,9.465481E-1,2.9177675E-1,-8.5758284E-2,4.5691162E-2,8.3062947E-1,-4.5201372E-2,1.2115407E-1,-3.49811E-1,2.777924E-1,-1.2420966E-1,-8.365243E-2,1.8818319E-1,8.3141464E-1,-1.9151644E-1,2.0134865E-1,7.309154E-1,2.918763E-1,-4.3719298E-1,5.532496E-2,-1.7378478E-1,3.327419E-1,2.1566063E-2,-3.26989E-2,-3.423661E-1,7.008134E-1,-4.838687E-2,2.5539052E-1,-2.534753E-1,-1.5070345E-1,7.2857714E-1,2.8611248E-2,2.143557E-1,8.711981E-1,2.4307986E-1,-2.1778494E-2,-4.250168E-1,-4.415517E-1,-6.639086E-1,2.4891578E-1,6.4145815E-1,-1.9744234E-1,-6.205846E-2,1.604805E-1,-2.3628877E-1,9.982584E-1,-3.5715398E-1,7.5914663E-1,9.061193E-2],"categories":[],"categories_nodes":[],"categories_segments":[],"categories_sizes":[],"default_left":[0,0,0,0,0,0,0,0,0,0,0,0,0,0,0,0,0,0,0,0,0,0,0,0,0,0,0,0,0,0,0,0,0,0,0,0,0,0,0,0,0,0,0,0,0,0,0,0,0,0,0,0,0,0,0,0,0,0,0,0,0,0,0,0,0,0,0,0,0,0,0,0,0,0,0,0,0,0,0,0,0,0,0,0,0,0,0,0,0,0,0,0,0,0,0,0,0,0,0,0,0,0,0,0,0,0,0,0,0,0,0,0,0,0,0,0,0,0,0,0,0,0,0,0,0],"id":11,"left_children":[1,3,5,7,9,11,13,15,17,19,21,23,25,27,29,31,33,35,37,39,41,43,45,47,49,51,53,55,57,59,61,63,65,67,69,71,73,75,77,79,81,83,85,87,89,91,93,95,97,99,101,103,105,107,109,111,113,-1,115,117,119,121,123,-1,-1,-1,-1,-1,-1,-1,-1,-1,-1,-1,-1,-1,-1,-1,-1,-1,-1,-1,-1,-1,-1,-1,-1,-1,-1,-1,-1,-1,-1,-1,-1,-1,-1,-1,-1,-1,-1,-1,-1,-1,-1,-1,-1,-1,-1,-1,-1,-1,-1,-1,-1,-1,-1,-1,-1,-1,-1,-1,-1,-1,-1],"loss_changes":[4.0778934E4,1.4216121E4,9.947391E3,3.6875508E3,8.422973E3,5.028109E3,6.422328E3,4.2679043E3,3.0771348E3,4.9014814E3,5.7655586E3,4.7922495E3,5.275316E3,2.931455E3,4.0797441E3,3.889169E3,2.2218828E3,3.546704E2,5.808958E3,4.519365E3,3.7967246E3,3.3509653E3,3.8104465E3,6.4422134E3,6.283056E3,5.3034937E3,6.535994E3,6.518037E2,5.064673E1,5.3272383E3,2.114812E3,5.5259443E3,2.4862124E3,3.101029E3,1.8193887E3,1.1228043E1,1.2614551E2,2.5016956E3,2.1017305E3,3.9714785E3,1.7264536E3,3.2934321E3,2.265254E3,4.195974E3,3.2031064E3,7.361177E2,2.6288267E3,5.556324E3,6.4646113E3,3.9254414E3,4.034559E3,5.4840117E3,3.7203247E3,4.3842944E3,3.6808164E3,7.715818E2,2.813789E2,0E0,7.203198E1,5.4473066E3,2.2765078E3,1.5446296E3,2.8812915E3,0E0,0E0,0E0,0E0,0E0,0E0,0E0,0E0,0E0,0E0,0E0,0E0,0E0,0E0,0E0,0E0,0E0,0E0,0E0,0E0,0E0,0E0,0E0,0E0,0E0,0E0,0E0,0E0,0E0,0E0,0E0,0E0,0E0,0E0,0E0,0E0,0E0,0E0,0E0,0E0,0E0,0E0,0E0,0E0,0E0,0E0,0E0,0E0,0E0,0E0,0E0,0E0,0E0,0E0,0E0,0E0,0E0,0E0,0E0,0E0,0E0,0E0],"parents":[2147483647,0,0,1,1,2,2,3,3,4,4,5,5,6,6,7,7,8,8,9,9,10,10,11,11,12,12,13,13,14,14,15,15,16,16,17,17,18,18,19,19,20,20,21,21,22,22,23,23,24,24,25,25,26,26,27,27,28,28,29,29,30,30,31,31,32,32,33,33,34,34,35,35,36,36,37,37,38,38,39,39,40,40,41,41,42,42,43,43,44,44,45,45,46,46,47,47,48,48,49,49,50,50,51,51,52,52,53,53,54,54,55,55,56,56,58,58,59,59,60,60,61,61,62,62],"right_children":[2,4,6,8,10,12,14,16,18,20,22,24,26,28,30,32,34,36,38,40,42,44,46,48,50,52,54,56,58,60,62,64,66,68,70,72,74,76,78,80,82,84,86,88,90,92,94,96,98,100,102,104,106,108,110,112,114,-1,116,118,120,122,124,-1,-1,-1,-1,-1,-1,-1,-1,-1,-1,-1,-1,-1,-1,-1,-1,-1,-1,-1,-1,-1,-1,-1,-1,-1,-1,-1,-1,-1,-1,-1,-1,-1,-1,-1,-1,-1,-1,-1,-1,-1,-1,-1,-1,-1,-1,-1,-1,-1,-1,-1,-1,-1,-1,-1,-1,-1,-1,-1,-1,-1,-1],"split_conditions":[1.1414E4,1.935E3,1.0173E4,7.8086566E2,1.4797E4,4.110831E-3,4.0428204E-4,3.6808958E-3,6.6454346E1,1.0121159E3,1.1345703E3,6.847265E2,9.88806E-4,2.7097974E-3,8.304263E-2,7.9582776E2,6.101429E2,2.25E2,8.1145256E1,1.08023544E2,8.9881325E-4,7.0631577E3,1.5068E4,6.989264E3,7.0868696E3,9.780589E1,7.623964E2,9.774534E1,1.982E4,1.5057E4,8.729042E1,9.862324E1,6.936264E3,6.9816455E3,9.795113E1,1.6E2,1.071E3,8.334E3,8.125695E1,7.01149E1,9.862676E1,7.101E3,7.1946333E3,9.873162E1,9.192496E1,7.304436E3,1.4940353E4,8.6447014E1,6.3260065E2,1.0903974E-3,7.087038E3,7.9332825E2,7.8745844E2,9.9086754E1,9.835855E1,2.8432E4,7.0646406E3,8.84637E-1,3.0545E4,7.08721E1,7.277466E-4,8.7244316E1,8.736125E1,1.126646E-1,-1.16249E-1,-9.2221326E-1,3.8498136E-1,3.6911067E-1,1.5693286E-2,6.0866886E-1,2.6635417E-1,1.702041E-1,-7.5796746E-2,7.346358E-1,1.0294327E0,2.912868E-1,-4.2333674E-1,9.465481E-1,2.9177675E-1,-8.5758284E-2,4.5691162E-2,8.3062947E-1,-4.5201372E-2,1.2115407E-1,-3.49811E-1,2.777924E-1,-1.2420966E-1,-8.365243E-2,1.8818319E-1,8.3141464E-1,-1.9151644E-1,2.0134865E-1,7.309154E-1,2.918763E-1,-4.3719298E-1,5.532496E-2,-1.7378478E-1,3.327419E-1,2.1566063E-2,-3.26989E-2,-3.423661E-1,7.008134E-1,-4.838687E-2,2.5539052E-1,-2.534753E-1,-1.5070345E-1,7.2857714E-1,2.8611248E-2,2.143557E-1,8.711981E-1,2.4307986E-1,-2.1778494E-2,-4.250168E-1,-4.415517E-1,-6.639086E-1,2.4891578E-1,6.4145815E-1,-1.9744234E-1,-6.205846E-2,1.604805E-1,-2.3628877E-1,9.982584E-1,-3.5715398E-1,7.5914663E-1,9.061193E-2],"split_indices":[0,0,1,11,1,6,6,3,7,10,10,11,3,3,6,9,11,0,7,7,3,2,1,2,2,4,11,4,0,1,4,4,5,5,4,0,0,1,7,7,4,0,2,7,4,5,5,7,8,3,5,10,9,7,7,0,5,0,0,7,6,4,4,0,0,0,0,0,0,0,0,0,0,0,0,0,0,0,0,0,0,0,0,0,0,0,0,0,0,0,0,0,0,0,0,0,0,0,0,0,0,0,0,0,0,0,0,0,0,0,0,0,0,0,0,0,0,0,0,0,0,0,0,0,0],"split_type":[0,0,0,0,0,0,0,0,0,0,0,0,0,0,0,0,0,0,0,0,0,0,0,0,0,0,0,0,0,0,0,0,0,0,0,0,0,0,0,0,0,0,0,0,0,0,0,0,0,0,0,0,0,0,0,0,0,0,0,0,0,0,0,0,0,0,0,0,0,0,0,0,0,0,0,0,0,0,0,0,0,0,0,0,0,0,0,0,0,0,0,0,0,0,0,0,0,0,0,0,0,0,0,0,0,0,0,0,0,0,0,0,0,0,0,0,0,0,0,0,0,0,0,0,0],"sum_hessian":[1.30107E5,6.1525E4,6.8582E4,1.6261E4,4.5264E4,2.7266E4,4.1316E4,1.4434E4,1.827E3,3.8417E4,6.847E3,1.3421E4,1.3845E4,7.47E2,4.0569E4,1.2807E4,1.627E3,1.03E2,1.724E3,3.5704E4,2.713E3,6.46E3,3.87E2,8.744E3,4.677E3,3.903E3,9.942E3,7.18E2,2.9E1,3.9104E4,1.465E3,1.2213E4,5.94E2,9.96E2,6.31E2,7E0,9.6E1,2.37E2,1.487E3,3.5577E4,1.27E2,6.97E2,2.016E3,3.778E3,2.682E3,1.81E2,2.06E2,4.533E3,4.211E3,2.096E3,2.581E3,1.101E3,2.802E3,9.533E3,4.09E2,1.94E2,5.24E2,6E0,2.3E1,3.6215E4,2.889E3,1.45E2,1.32E3,1.1048E4,1.165E3,1.4E1,5.8E2,4.67E2,5.29E2,2.85E2,3.46E2,5E0,2E0,6.1E1,3.5E1,6.8E1,1.69E2,5E1,1.437E3,2.469E3,3.3108E4,9.8E1,2.9E1,4.84E2,2.13E2,1.865E3,1.51E2,3.083E3,6.95E2,3E1,2.652E3,3.3E1,1.48E2,1.26E2,8E1,1.683E3,2.85E3,8.31E2,3.38E3,5.58E2,1.538E3,7.3E1,2.508E3,8.16E2,2.85E2,2.754E3,4.8E1,8.024E3,1.509E3,1.44E2,2.65E2,8.2E1,1.12E2,4.54E2,7E1,1E1,1.3E1,3.266E3,3.2949E4,1.52E2,2.737E3,8E0,1.37E2,6.7E1,1.253E3],"tree_param":{"num_deleted":"0","num_feature":"12","num_nodes":"125","size_leaf_vector":"1"}},{"base_weights":[4.732312E-4,9.482806E-1,-2.7119517E-1,1.7531838E0,7.107912E-1,-6.8390146E-2,-8.2515717E-1,1.5064279E0,3.7517009E0,4.3677452E-1,1.4746622E0,-1.1538551E0,5.9821855E-2,-1.564388E0,-4.3248293E-1,1.6880258E0,-1.1864419E0,2.3907132E0,5.346645E0,1.2916778E-1,1.213398E0,2.7447712E0,7.5436306E-1,8.6141914E-1,-1.7388623E0,7.722122E-1,-1.588409E-1,-7.250232E-1,-2.1262207E0,6.0742196E-2,-1.2268898E0,1.3421369E0,3.2497666E0,-4.0435E0,1.6313355E0,5.0242467E0,8.642353E-1,2.8180906E-1,6.096666E0,-1.4423156E-1,8.919929E-1,2.896505E0,7.939832E-1,2.2096727E0,5.287385E0,-4.0016124E-1,2.1830332E0,3.8015068E0,-2.2207968E-1,-8.113995E-1,-2.5645313E0,3.70804E-1,2.1761627E0,2.9056424E-1,-5.4120135E-1,-8.8354605E-1,3.905838E0,-2.2336934E0,2.7450895E0,-1.3613843E0,4.1598207E-1,-4.1287303E0,-9.101162E-1,2.5849998E-1,7.337986E-2,3.5569295E-1,-1.6114981E-1,-6.5375453E-1,3.438655E-2,-2.8321406E-2,7.0681846E-1,-2.524967E-1,5.6676024E-1,-1.7805122E-2,6.6837823E-1,2.1019073E-1,-5.369568E-1,2.2346869E-1,6.617978E-1,1.2631768E-2,-1.4795078E-1,8.97143E-1,7.945819E-2,-1.7180485E-1,3.62665E-1,4.8286717E-2,4.131847E-1,2.9289663E-1,-1.15641795E-1,3.2024956E-1,6.4664423E-1,-8.396702E-2,3.1006512E-1,-5.4034162E-2,2.8587335E-1,5.413816E-1,-8.9477815E-2,2.673147E-1,-1.5545513E-1,-3.27486E-1,-2.4476176E-2,6.5805525E-1,-2.8036776E-1,9.925475E-2,-1.6431819E-1,8.941351E-1,1.8921804E-1,1.9497715E-2,1.7580651E-1,-6.0989182E-2,2.5142556E-1,3.271022E-2,-1.3890117E-1,7.9702395E-1,-3.5267036E-2,8.94313E-2,-2.4076429E-1,3.7721506E-1,-6.983983E-1,6.5371685E-2,-7.037926E-1,2.3962164E-1,6.960475E-3,-2.0065537E-1,-5.255945E-1,-1.1545066E-1,1.5398306E-1],"categories":[],"categories_nodes":[],"categories_segments":[],"categories_sizes":[],"default_left":[0,0,0,0,0,0,0,0,0,0,0,0,0,0,0,0,0,0,0,0,0,0,0,0,0,0,0,0,0,0,0,0,0,0,0,0,0,0,0,0,0,0,0,0,0,0,0,0,0,0,0,0,0,0,0,0,0,0,0,0,0,0,0,0,0,0,0,0,0,0,0,0,0,0,0,0,0,0,0,0,0,0,0,0,0,0,0,0,0,0,0,0,0,0,0,0,0,0,0,0,0,0,0,0,0,0,0,0,0,0,0,0,0,0,0,0,0,0,0,0,0,0,0,0,0,0,0],"id":12,"left_children":[1,3,5,7,9,11,13,15,17,19,21,23,25,27,29,31,33,35,37,39,41,43,45,47,49,51,53,55,57,59,61,63,65,67,69,71,73,75,77,79,81,83,85,87,89,91,93,95,97,99,101,103,105,107,109,111,113,115,117,119,121,123,125,-1,-1,-1,-1,-1,-1,-1,-1,-1,-1,-1,-1,-1,-1,-1,-1,-1,-1,-1,-1,-1,-1,-1,-1,-1,-1,-1,-1,-1,-1,-1,-1,-1,-1,-1,-1,-1,-1,-1,-1,-1,-1,-1,-1,-1,-1,-1,-1,-1,-1,-1,-1,-1,-1,-1,-1,-1,-1,-1,-1,-1,-1,-1,-1],"loss_changes":[3.3501676E4,5.53941E3,1.1360849E4,3.2505918E3,4.684417E3,1.0302101E4,7.865828E3,2.8769473E3,1.5609746E3,3.9356318E3,5.403828E3,9.220887E3,1.0313244E4,4.4318066E3,6.9353145E3,2.970999E3,3.0014019E3,1.5755298E3,1.2632598E3,2.4615054E3,3.2971704E3,2.89717E3,6.22254E3,5.6074673E3,4.639295E3,8.761946E3,8.704961E3,2.7717314E3,2.9541406E3,5.517812E3,6.2285996E3,3.4087856E3,1.4959463E3,2.0265715E3,1.9589158E3,7.136941E2,1.5175988E3,4.6387305E2,5.690674E2,3.1391572E3,2.4436711E3,3.1464106E3,3.884972E3,4.284081E3,8.9128516E2,3.2137415E3,3.1040962E3,3.5939087E3,4.9691533E3,3.9858594E3,7.0300156E3,1.5144275E4,6.6246494E3,3.2663618E3,5.74618E3,2.2322039E3,2.1663467E3,3.0002285E3,1.2454114E3,2.497551E4,5.993986E3,1.5850166E3,3.6624946E3,0E0,0E0,0E0,0E0,0E0,0E0,0E0,0E0,0E0,0E0,0E0,0E0,0E0,0E0,0E0,0E0,0E0,0E0,0E0,0E0,0E0,0E0,0E0,0E0,0E0,0E0,0E0,0E0,0E0,0E0,0E0,0E0,0E0,0E0,0E0,0E0,0E0,0E0,0E0,0E0,0E0,0E0,0E0,0E0,0E0,0E0,0E0,0E0,0E0,0E0,0E0,0E0,0E0,0E0,0E0,0E0,0E0,0E0,0E0,0E0,0E0,0E0,0E0,0E0],"parents":[2147483647,0,0,1,1,2,2,3,3,4,4,5,5,6,6,7,7,8,8,9,9,10,10,11,11,12,12,13,13,14,14,15,15,16,16,17,17,18,18,19,19,20,20,21,21,22,22,23,23,24,24,25,25,26,26,27,27,28,28,29,29,30,30,31,31,32,32,33,33,34,34,35,35,36,36,37,37,38,38,39,39,40,40,41,41,42,42,43,43,44,44,45,45,46,46,47,47,48,48,49,49,50,50,51,51,52,52,53,53,54,54,55,55,56,56,57,57,58,58,59,59,60,60,61,61,62,62],"right_children":[2,4,6,8,10,12,14,16,18,20,22,24,26,28,30,32,34,36,38,40,42,44,46,48,50,52,54,56,58,60,62,64,66,68,70,72,74,76,78,80,82,84,86,88,90,92,94,96,98,100,102,104,106,108,110,112,114,116,118,120,122,124,126,-1,-1,-1,-1,-1,-1,-1,-1,-1,-1,-1,-1,-1,-1,-1,-1,-1,-1,-1,-1,-1,-1,-1,-1,-1,-1,-1,-1,-1,-1,-1,-1,-1,-1,-1,-1,-1,-1,-1,-1,-1,-1,-1,-1,-1,-1,-1,-1,-1,-1,-1,-1,-1,-1,-1,-1,-1,-1,-1,-1,-1,-1,-1,-1],"split_conditions":[4.071E3,7.85E2,1.4215E4,9.2402106E2,2.6301178E-3,5.1358E2,1.2529631E-3,1.5002E4,1.8089359E-3,9.860422E1,8.628674E1,8.739497E1,6.8800116E2,1.2628E4,9.786144E1,1.4808E4,1.5045E4,9.3761215E-4,5.072E3,9.071214E-3,7.260253E2,8.269138E2,9.8801834E1,6.8017075E3,9.7372246E1,9.842865E1,1.541E4,9.930166E1,8.925329E3,5.108901E2,6.334124E2,9.7873085E1,9.8790245E1,6.137394E2,6.990181E3,7.200576E3,8.304263E-2,7.304436E3,6.310222E2,9.7372246E1,2.874247E-4,6.8966475E3,9.2402106E2,7.0532117E2,1.455E3,3.9830105E-3,6.997692E3,7.076059E-3,8.334E3,6.2160526E1,3.371E3,9.7372246E1,5.193661E2,7.304436E3,1.01436676E2,6.5686094E-4,1.4725E4,3.8234107E-4,7.735731E2,2.3239001E-3,6.873564E3,1.8707737E-3,7.7866626E2,2.5849998E-1,7.337986E-2,3.5569295E-1,-1.6114981E-1,-6.5375453E-1,3.438655E-2,-2.8321406E-2,7.0681846E-1,-2.524967E-1,5.6676024E-1,-1.7805122E-2,6.6837823E-1,2.1019073E-1,-5.369568E-1,2.2346869E-1,6.617978E-1,1.2631768E-2,-1.4795078E-1,8.97143E-1,7.945819E-2,-1.7180485E-1,3.62665E-1,4.8286717E-2,4.131847E-1,2.9289663E-1,-1.15641795E-1,3.2024956E-1,6.4664423E-1,-8.396702E-2,3.1006512E-1,-5.4034162E-2,2.8587335E-1,5.413816E-1,-8.9477815E-2,2.673147E-1,-1.5545513E-1,-3.27486E-1,-2.4476176E-2,6.5805525E-1,-2.8036776E-1,9.925475E-2,-1.6431819E-1,8.941351E-1,1.8921804E-1,1.9497715E-2,1.7580651E-1,-6.0989182E-2,2.5142556E-1,3.271022E-2,-1.3890117E-1,7.9702395E-1,-3.5267036E-2,8.94313E-2,-2.4076429E-1,3.7721506E-1,-6.983983E-1,6.5371685E-2,-7.037926E-1,2.3962164E-1,6.960475E-3,-2.0065537E-1,-5.255945E-1,-1.1545066E-1,1.5398306E-1],"split_indices":[0,0,1,10,3,10,3,1,3,7,7,4,10,0,4,1,1,3,1,6,10,10,7,5,7,7,0,7,5,10,8,4,4,11,2,5,6,5,8,7,3,5,10,11,0,3,2,6,1,7,1,7,10,5,7,3,1,3,9,3,5,3,11,0,0,0,0,0,0,0,0,0,0,0,0,0,0,0,0,0,0,0,0,0,0,0,0,0,0,0,0,0,0,0,0,0,0,0,0,0,0,0,0,0,0,0,0,0,0,0,0,0,0,0,0,0,0,0,0,0,0,0,0,0,0,0,0],"split_type":[0,0,0,0,0,0,0,0,0,0,0,0,0,0,0,0,0,0,0,0,0,0,0,0,0,0,0,0,0,0,0,0,0,0,0,0,0,0,0,0,0,0,0,0,0,0,0,0,0,0,0,0,0,0,0,0,0,0,0,0,0,0,0,0,0,0,0,0,0,0,0,0,0,0,0,0,0,0,0,0,0,0,0,0,0,0,0,0,0,0,0,0,0,0,0,0,0,0,0,0,0,0,0,0,0,0,0,0,0,0,0,0,0,0,0,0,0,0,0,0,0,0,0,0,0,0,0],"sum_hessian":[1.30107E5,2.8984E4,1.01123E5,6.602E3,2.2382E4,7.4024E4,2.7099E4,5.878E3,7.24E2,1.6474E4,5.908E3,7.819E3,6.6205E4,9.4E3,1.7699E4,5.507E3,3.71E2,3.92E2,3.32E2,1.1801E4,4.673E3,2.137E3,3.771E3,1.759E3,6.06E3,1.5548E4,5.0657E4,3.77E3,5.63E3,1.092E4,6.779E3,4.51E3,9.97E2,1.84E2,1.87E2,1.43E2,2.49E2,4.3E1,2.89E2,8.688E3,3.113E3,9.31E2,3.742E3,1.767E3,3.7E2,2.086E3,1.685E3,4.73E2,1.286E3,2.855E3,3.205E3,1.2092E4,3.456E3,2.3287E4,2.737E4,3.646E3,1.24E2,5.509E3,1.21E2,2.182E3,8.738E3,6.66E2,6.113E3,1.481E3,3.029E3,9.38E2,5.9E1,1.17E2,6.7E1,1.39E2,4.8E1,1.1E1,1.32E2,2.12E2,3.7E1,3.3E1,1E1,3.5E1,2.54E2,7.225E3,1.463E3,3.6E1,3.077E3,1.27E2,8.04E2,3.424E3,3.18E2,1.456E3,3.11E2,1.35E2,2.35E2,1.854E3,2.32E2,3.35E2,1.35E3,3.52E2,1.21E2,4.05E2,8.81E2,5.33E2,2.322E3,8.1E1,3.124E3,9.24E3,2.852E3,1.38E2,3.318E3,2.1864E4,1.423E3,2.6769E4,6.01E2,1.074E3,2.572E3,6.3E1,6.1E1,2.9E2,5.219E3,1.1E2,1.1E1,1.611E3,5.71E2,1.3E3,7.438E3,2.32E2,4.34E2,5.559E3,5.54E2],"tree_param":{"num_deleted":"0","num_feature":"12","num_nodes":"127","size_leaf_vector":"1"}},{"base_weights":[4.744903E-4,5.9972334E-1,-3.532985E-1,1.3355526E0,3.91007E-1,-4.1049954E-1,1.2391607E0,1.520426E0,-2.616046E-1,7.2531396E-1,-9.383643E-2,-9.895134E-3,-6.4363825E-1,3.6968595E-1,2.060111E0,4.0101643E0,1.4002194E0,2.0799372E0,-8.309465E-1,4.0912104E-1,1.3725255E0,6.2541944E-1,-5.2775294E-1,-1.003144E0,1.192446E-1,-3.0936918E0,-5.963528E-1,-4.6882596E0,6.600892E-1,2.384445E0,-2.899862E0,5.5618405E0,3.1296873E0,1.6157037E0,3.233687E-2,-3.5086021E0,4.189003E0,1.0145069E0,-2.4170742E0,1.0044743E0,-1.1047292E0,5.0625353E0,1.2567588E0,-5.918723E-1,1.4939033E0,-6.0800034E-1,4.3874416E0,1.1910484E0,-1.7529228E0,5.0828505E-1,-2.9838505E-1,-3.3712144E0,5.483118E0,-4.2946678E-1,-1.239187E0,5.967847E0,-5.372658E0,-3.2864997E0,1.0920771E0,2.5591977E0,-6.747356E0,5.5700774E0,-6.61825E0,1.5142986E-1,6.039102E-1,3.3914828E-1,-7.6770395E-1,1.3867608E-1,3.5597727E-1,-5.623762E-2,4.1198435E-1,6.249363E-1,-4.9153024E-1,9.41453E-1,2.680274E-1,-2.1150695E-1,3.8785884E-1,-4.8307988E-1,-1.0287775E-1,8.0427244E-2,3.241193E-1,-3.2448867E-1,-3.9121978E-2,3.9050332E-1,1.0077239E0,1.1188119E-1,4.32094E-1,-9.892266E-2,3.2284877E-1,2.1253541E-1,1.0831615E-2,-1.4907235E-1,-1.8181514E-2,7.839627E-1,-1.0042454E-1,1.5709378E-1,-7.219241E-1,-2.043566E-1,3.5868713E-1,8.40955E-2,-6.769829E-2,-1.7759526E-1,7.581488E-3,-3.8072357E-1,-1.5672205E-1,8.003033E-1,4.5196792E-1,-1.0937153E-2,-9.2566185E-2,6.890459E-2,-1.4974597E-1,7.9363364E-1,-9.530564E-2,-6.6193074E-1,1.3083118E-1,3.313038E-1,-6.183111E-1,8.838515E-1,9.0941355E-2,4.5671645E-1,1.7373711E-1,3.282509E-2,-8.886451E-1,6.8772453E-1,-7.6154065E-1,-8.942381E-1,8.320137E-1],"categories":[],"categories_nodes":[],"categories_segments":[],"categories_sizes":[],"default_left":[0,0,0,0,0,0,0,0,0,0,0,0,0,0,0,0,0,0,0,0,0,0,0,0,0,0,0,0,0,0,0,0,0,0,0,0,0,0,0,0,0,0,0,0,0,0,0,0,0,0,0,0,0,0,0,0,0,0,0,0,0,0,0,0,0,0,0,0,0,0,0,0,0,0,0,0,0,0,0,0,0,0,0,0,0,0,0,0,0,0,0,0,0,0,0,0,0,0,0,0,0,0,0,0,0,0,0,0,0,0,0,0,0,0,0,0,0,0,0,0,0,0,0,0,0,0,0],"id":13,"left_children":[1,3,5,7,9,11,13,15,17,19,21,23,25,27,29,31,33,35,37,39,41,43,45,47,49,51,53,55,57,59,61,63,65,67,69,71,73,75,77,79,81,83,85,87,89,91,93,95,97,99,101,103,105,107,109,111,113,115,117,119,121,123,125,-1,-1,-1,-1,-1,-1,-1,-1,-1,-1,-1,-1,-1,-1,-1,-1,-1,-1,-1,-1,-1,-1,-1,-1,-1,-1,-1,-1,-1,-1,-1,-1,-1,-1,-1,-1,-1,-1,-1,-1,-1,-1,-1,-1,-1,-1,-1,-1,-1,-1,-1,-1,-1,-1,-1,-1,-1,-1,-1,-1,-1,-1,-1,-1],"loss_changes":[2.7582854E4,7.4170625E3,7.452702E3,3.151541E3,6.098898E3,7.3759736E3,2.0242769E3,2.8570254E3,1.4788451E3,4.5570586E3,4.7932036E3,3.7268152E3,5.781707E3,2.0286302E3,2.3539893E3,5.83728E2,2.6899023E3,2.5723896E3,2.6134473E3,1.3486897E4,3.1158984E3,6.1104316E3,3.7809282E3,5.5018545E3,4.1777046E3,2.2678281E3,5.25383E3,5.790398E2,2.2284563E3,2.203523E3,2.8713708E3,2.9606982E2,8.26687E2,3.50408E3,3.0239177E3,8.5430945E2,1.2204236E3,3.710072E3,1.6034937E3,4.806715E3,6.4488726E3,1.2492539E3,2.9912236E3,3.6571077E3,2.9509097E3,3.5458237E3,2.8742908E3,2.7334634E3,3.87485E3,5.2495303E3,6.8567188E3,7.1454004E2,3.6662354E1,6.1759897E3,5.0279434E3,7.568242E1,6.0000684E2,2.4864868E3,1.6574089E3,2.211585E3,3.9643726E2,5.3497107E2,2.2616846E3,0E0,0E0,0E0,0E0,0E0,0E0,0E0,0E0,0E0,0E0,0E0,0E0,0E0,0E0,0E0,0E0,0E0,0E0,0E0,0E0,0E0,0E0,0E0,0E0,0E0,0E0,0E0,0E0,0E0,0E0,0E0,0E0,0E0,0E0,0E0,0E0,0E0,0E0,0E0,0E0,0E0,0E0,0E0,0E0,0E0,0E0,0E0,0E0,0E0,0E0,0E0,0E0,0E0,0E0,0E0,0E0,0E0,0E0,0E0,0E0,0E0,0E0,0E0,0E0],"parents":[2147483647,0,0,1,1,2,2,3,3,4,4,5,5,6,6,7,7,8,8,9,9,10,10,11,11,12,12,13,13,14,14,15,15,16,16,17,17,18,18,19,19,20,20,21,21,22,22,23,23,24,24,25,25,26,26,27,27,28,28,29,29,30,30,31,31,32,32,33,33,34,34,35,35,36,36,